{"learner":{"attributes":{"scikit_learn":"{\"_estimator_type\": \"regressor\"}"},"feature_names":["Crop","Crop_Year","Season","State","Area","Production","Annual_Rainfall","Fertilizer","Pesticide","Season_Rainfall_Index"],"feature_types":["int","int","int","int","float","float","float","float","float","float"],"gradient_booster":{"model":{"gbtree_model_param":{"num_parallel_tree":"1","num_trees":"100"},"iteration_indptr":[0,1,2,3,4,5,6,7,8,9,10,11,12,13,14,15,16,17,18,19,20,21,22,23,24,25,26,27,28,29,30,31,32,33,34,35,36,37,38,39,40,41,42,43,44,45,46,47,48,49,50,51,52,53,54,55,56,57,58,59,60,61,62,63,64,65,66,67,68,69,70,71,72,73,74,75,76,77,78,79,80,81,82,83,84,85,86,87,88,89,90,91,92,93,94,95,96,97,98,99,100],"tree_info":[0,0,0,0,0,0,0,0,0,0,0,0,0,0,0,0,0,0,0,0,0,0,0,0,0,0,0,0,0,0,0,0,0,0,0,0,0,0,0,0,0,0,0,0,0,0,0,0,0,0,0,0,0,0,0,0,0,0,0,0,0,0,0,0,0,0,0,0,0,0,0,0,0,0,0,0,0,0,0,0,0,0,0,0,0,0,0,0,0,0,0,0,0,0,0,0,0,0,0,0],"trees":[{"base_weights":[3.144705E-8,-1.6782984E-1,4.6670827E-1,-1.625676E-2,-3.8211492E-1,6.029822E-1,-5.264643E-1,-1.4639024E-1,2.8906882E-1,-3.3155718E-1,-6.5680194E-1,-1.1545997E-1,6.398949E-1,-1.1371589E-1,-4.8217806E-1,2.244875E-2,-5.521375E-1,1.5577391E0,-1.5874863E-1,-3.6767823E-1,2.7192104E-1,-5.415494E-1,-7.862851E-1,1.6328744E0,5.370397E-1,-5.0160176E-1,1.556454E0,-7.085201E-2,1.0518248E0,-8.354799E-1,-4.2687714E-1,2.3658755E0,1.2470976E0,1.3843916E-1,-5.749612E-1,-2.0386057E-1,-4.3701246E-1,1.9682312E0,3.225222E-2,-6.630537E-1,-2.6792526E-1,-8.9404404E-2,-6.95415E-1,2.2717097E0,1.2678794E0,3.8018408E-1,1.3863969E0,-5.5577064E-1,-1.2532966E-1,8.14147E-3,2.0209955E-1,2.5632281E-3,-4.3796685E-2,2.563938E-1,8.442124E-2,-9.492403E-2,-7.56503E-2,-3.9234273E-3,-6.1571177E-2,2.0016818E-1,3.2984743E-1,8.021691E-2,2.1587689E-1,-1.5597293E-2,8.871894E-2,-7.6025955E-2,-3.6743965E-2,-6.777645E-2,-8.26509E-3,-4.7791656E-2,-2.2635287E-2,2.3240505E-1,1.1169716E-1,-2.262435E-3,9.180274E-2,-7.993397E-2,-5.915339E-2,-2.8865812E-3,-3.5030656E-2,-5.528137E-2,-7.642378E-2,2.5926182E-1,1.8716945E-1,8.871918E-2,1.6687672E-1,7.4825957E-3,6.1047323E-2,2.3227587E-1,1.10128716E-1,-4.0356196E-2,-6.016929E-2,4.0104087E-2,-1.7865993E-2],"categories":[],"categories_nodes":[],"categories_segments":[],"categories_sizes":[],"default_left":[0,0,0,0,0,0,0,0,0,0,0,0,0,0,0,0,0,0,0,0,0,0,0,0,0,0,0,0,0,0,0,0,0,0,0,0,0,0,0,0,0,0,0,0,0,0,0,0,0,0,0,0,0,0,0,0,0,0,0,0,0,0,0,0,0,0,0,0,0,0,0,0,0,0,0,0,0,0,0,0,0,0,0,0,0,0,0,0,0,0,0,0,0],"id":0,"left_children":[1,3,5,7,9,11,13,15,17,19,21,-1,23,-1,25,27,29,31,33,35,37,39,41,43,45,47,49,51,53,55,57,59,61,63,65,67,69,71,73,75,77,-1,79,81,83,85,87,89,91,-1,-1,-1,-1,-1,-1,-1,-1,-1,-1,-1,-1,-1,-1,-1,-1,-1,-1,-1,-1,-1,-1,-1,-1,-1,-1,-1,-1,-1,-1,-1,-1,-1,-1,-1,-1,-1,-1,-1,-1,-1,-1,-1,-1],"loss_changes":[1.0418352E3,3.1774414E2,4.76456E2,2.2775261E2,5.606848E1,2.0146838E2,1.0945961E1,2.7533783E2,9.734586E2,7.475903E1,8.9609375E0,0E0,3.0868848E2,0E0,1.6540604E1,2.7273657E2,4.15589E1,1.0926477E2,1.5679901E2,3.6620514E1,7.8807724E1,1.0993172E1,2.257141E0,6.3340576E1,3.6557928E2,7.981331E0,2.5763302E0,9.224704E1,7.192377E1,2.525299E0,6.0073364E1,3.517395E1,1.300976E2,1.6326482E2,2.0024033E1,5.526037E1,1.9452057E1,4.6735687E0,8.332788E0,1.7885056E0,2.0577607E0,0E0,1.1870499E0,8.240967E0,2.6447662E1,1.6316858E2,1.1170331E2,2.1686554E0,1.5032958E0,0E0,0E0,0E0,0E0,0E0,0E0,0E0,0E0,0E0,0E0,0E0,0E0,0E0,0E0,0E0,0E0,0E0,0E0,0E0,0E0,0E0,0E0,0E0,0E0,0E0,0E0,0E0,0E0,0E0,0E0,0E0,0E0,0E0,0E0,0E0,0E0,0E0,0E0,0E0,0E0,0E0,0E0,0E0,0E0],"parents":[2147483647,0,0,1,1,2,2,3,3,4,4,5,5,6,6,7,7,8,8,9,9,10,10,12,12,14,14,15,15,16,16,17,17,18,18,19,19,20,20,21,21,22,22,23,23,24,24,25,25,26,26,27,27,28,28,29,29,30,30,31,31,32,32,33,33,34,34,35,35,36,36,37,37,38,38,39,39,40,40,42,42,43,43,44,44,45,45,46,46,47,47,48,48],"right_children":[2,4,6,8,10,12,14,16,18,20,22,-1,24,-1,26,28,30,32,34,36,38,40,42,44,46,48,50,52,54,56,58,60,62,64,66,68,70,72,74,76,78,-1,80,82,84,86,88,90,92,-1,-1,-1,-1,-1,-1,-1,-1,-1,-1,-1,-1,-1,-1,-1,-1,-1,-1,-1,-1,-1,-1,-1,-1,-1,-1,-1,-1,-1,-1,-1,-1,-1,-1,-1,-1,-1,-1,-1,-1,-1,-1,-1,-1],"split_conditions":[7.2531E4,3.2E1,3.9E1,9.963E3,3.8E4,5.23E3,1.4931E4,3.63E3,1.207E4,2.3233E4,7.5642E4,-1.1545997E-1,5.6233E4,-1.1371589E-1,1.163725E6,3.19E3,3.268E3,5.06E3,3.95E4,3.9E1,1.6021E4,4.0153E4,4.1502E4,3.2679E4,2.854873E6,4.7E1,1.999E3,1.605E3,1.45E3,1.682E3,6.41E3,1.7434E4,2.145E4,3.8407E4,4.1502E4,3.3E1,7.579E3,1.2481E4,5.7193E4,2.22E4,5.0719E4,-8.9404404E-2,1.0437E5,2.7096E4,1.18472E5,2.96355E5,7.11E2,4.1E1,8E0,8.14147E-3,2.0209955E-1,2.5632281E-3,-4.3796685E-2,2.563938E-1,8.442124E-2,-9.492403E-2,-7.56503E-2,-3.9234273E-3,-6.1571177E-2,2.0016818E-1,3.2984743E-1,8.021691E-2,2.1587689E-1,-1.5597293E-2,8.871894E-2,-7.6025955E-2,-3.6743965E-2,-6.777645E-2,-8.26509E-3,-4.7791656E-2,-2.2635287E-2,2.3240505E-1,1.1169716E-1,-2.262435E-3,9.180274E-2,-7.993397E-2,-5.915339E-2,-2.8865812E-3,-3.5030656E-2,-5.528137E-2,-7.642378E-2,2.5926182E-1,1.8716945E-1,8.871918E-2,1.6687672E-1,7.4825957E-3,6.1047323E-2,2.3227587E-1,1.10128716E-1,-4.0356196E-2,-6.016929E-2,4.0104087E-2,-1.7865993E-2],"split_indices":[5,0,0,5,4,4,4,4,4,5,4,0,4,0,5,5,5,4,4,0,4,5,5,4,5,0,1,4,4,5,4,5,5,5,5,0,5,4,5,5,4,0,4,4,5,5,6,0,3,0,0,0,0,0,0,0,0,0,0,0,0,0,0,0,0,0,0,0,0,0,0,0,0,0,0,0,0,0,0,0,0,0,0,0,0,0,0,0,0,0,0,0,0],"split_type":[0,0,0,0,0,0,0,0,0,0,0,0,0,0,0,0,0,0,0,0,0,0,0,0,0,0,0,0,0,0,0,0,0,0,0,0,0,0,0,0,0,0,0,0,0,0,0,0,0,0,0,0,0,0,0,0,0,0,0,0,0,0,0,0,0,0,0,0,0,0,0,0,0,0,0,0,0,0,0,0,0,0,0,0,0,0,0,0,0,0,0,0,0],"sum_hessian":[1.3299E4,9.782E3,3.517E3,5.73E3,4.052E3,3.093E3,4.24E2,4.018E3,1.712E3,3.424E3,6.28E2,6.3E1,3.03E3,2.7E1,3.97E2,2.838E3,1.18E3,4.46E2,1.266E3,3.231E3,1.93E2,3.35E2,2.93E2,2.83E2,2.747E3,3.94E2,3E0,2.603E3,2.35E2,3.6E2,8.2E2,1.22E2,3.24E2,7.39E2,5.27E2,9.62E2,2.269E3,2.3E1,1.7E2,2.31E2,1.04E2,1.3E2,1.63E2,1.01E2,1.82E2,2.32E3,4.27E2,3.44E2,5E1,1E0,2E0,2.062E3,5.41E2,2.7E1,2.08E2,1.43E2,2.17E2,2.69E2,5.51E2,9E1,3.2E1,2.19E2,1.05E2,5.31E2,2.08E2,2.77E2,2.5E2,1.95E2,7.67E2,1.899E3,3.7E2,1.5E1,8E0,1.61E2,9E0,7.6E1,1.55E2,2.7E1,7.7E1,5.6E1,1.07E2,5.3E1,4.8E1,9.5E1,8.7E1,9.98E2,1.322E3,9.8E1,3.29E2,8.2E1,2.62E2,4E0,4.6E1],"tree_param":{"num_deleted":"0","num_feature":"10","num_nodes":"93","size_leaf_vector":"1"}},{"base_weights":[1.3196404E-4,-1.5097131E-1,4.2032617E-1,-1.4482771E-2,-3.439308E-1,6.423597E-1,-9.030777E-2,-1.4351188E-1,2.5221273E-1,-2.9831764E-1,-5.917547E-1,-3.4147006E-1,7.2138983E-1,1.6329074E-1,-4.737749E-1,-2.2706633E-2,-5.541963E-1,1.8643453E0,1.4936231E-1,-3.3095574E-1,2.4696423E-1,-4.8792127E-1,-7.0840865E-1,-4.160553E-1,2.3480754E-2,-1.0312867E-1,7.564972E-1,8.7021105E-2,9.771003E-1,-1.02750435E-1,-4.336287E-1,-1.1575774E-1,1.1307282E0,-6.8927765E-1,-3.703186E-1,1.2885581E0,2.3079066E0,-9.059488E-2,3.735804E-1,-1.8355344E-1,-3.933423E-1,1.7857457E0,2.955066E-2,-5.973478E-1,-2.414939E-1,-7.860186E-2,-6.0445446E-1,-2.2262062E-1,-5.542053E-1,-7.610627E-1,6.003296E-1,6.3220686E-1,1.4300048E0,-8.4782176E-2,3.1711033E-1,7.086422E-1,1.4895618E-1,-4.5163974E-1,1.4533689E0,-2.6152447E-2,6.7586335E-3,1.4280109E-1,7.507905E-2,-5.40944E-2,-7.361344E-2,-3.461578E-2,-7.806567E-2,1.5842361E-2,1.4357223E-1,-9.091956E-3,2.3487222E-1,1.0782443E-3,-7.38622E-2,2.2540513E-1,2.6612787E-2,3.9293963E-2,-2.7160076E-2,-5.0489064E-2,-3.176437E-2,1.9451268E-1,5.0255835E-2,-1.0526809E-2,3.4883533E-2,-6.7616686E-2,-4.920679E-2,-2.6082369E-3,-3.1572502E-2,-4.9799684E-2,-7.064577E-2,9.838719E-3,-2.6940046E-2,-5.9731513E-2,-3.0458296E-2,-1.1908651E-3,-8.177739E-2,-9.738343E-3,7.3723726E-2,1.5426646E-1,5.000164E-2,2.1302126E-1,1.1526042E-1,-9.66131E-2,-6.3224556E-3,5.6602616E-2,-3.1075834E-3,2.7558042E-2,8.53465E-2,-5.0048497E-2,-1.1236063E-2,7.734394E-3,1.8862626E-1],"categories":[],"categories_nodes":[],"categories_segments":[],"categories_sizes":[],"default_left":[0,0,0,0,0,0,0,0,0,0,0,0,0,0,0,0,0,0,0,0,0,0,0,0,0,0,0,0,0,0,0,0,0,0,0,0,0,0,0,0,0,0,0,0,0,0,0,0,0,0,0,0,0,0,0,0,0,0,0,0,0,0,0,0,0,0,0,0,0,0,0,0,0,0,0,0,0,0,0,0,0,0,0,0,0,0,0,0,0,0,0,0,0,0,0,0,0,0,0,0,0,0,0,0,0,0,0,0,0,0,0],"id":1,"left_children":[1,3,5,7,9,11,13,15,17,19,21,23,25,27,29,31,33,35,37,39,41,43,45,47,49,-1,51,53,55,-1,57,59,61,63,65,67,69,71,73,75,77,79,81,83,85,-1,87,89,91,93,95,97,99,101,103,105,-1,107,109,-1,-1,-1,-1,-1,-1,-1,-1,-1,-1,-1,-1,-1,-1,-1,-1,-1,-1,-1,-1,-1,-1,-1,-1,-1,-1,-1,-1,-1,-1,-1,-1,-1,-1,-1,-1,-1,-1,-1,-1,-1,-1,-1,-1,-1,-1,-1,-1,-1,-1,-1,-1],"loss_changes":[8.445166E2,2.5764752E2,3.9892126E2,1.972484E2,4.5638763E1,1.9089478E2,1.0383959E2,1.9164178E2,3.0961768E2,6.1036346E1,7.273163E0,4.99102E0,1.4045764E2,3.9825317E1,9.002258E0,3.206135E2,2.1552887E1,2.5630585E1,9.4619064E1,2.9648987E1,6.48503E1,8.916222E0,1.8968353E0,3.9385166E0,1.4938902E1,0E0,1.8543542E2,2.3310104E1,6.5110283E0,0E0,1.4183144E1,7.3886856E1,2.4115448E1,3.11174E0,3.437645E0,8.254623E0,6.2839355E0,5.584893E1,1.8307391E2,4.898732E1,1.900763E1,3.9308472E0,7.3975115E0,1.5924225E0,1.6707406E0,0E0,1.0598602E0,1.00259E0,7.650528E-1,5.850563E-1,1.8867183E0,2.256142E2,6.47511E1,6.3608437E0,2.1858189E1,2.1480541E0,0E0,6.489769E0,2.2367983E0,0E0,0E0,0E0,0E0,0E0,0E0,0E0,0E0,0E0,0E0,0E0,0E0,0E0,0E0,0E0,0E0,0E0,0E0,0E0,0E0,0E0,0E0,0E0,0E0,0E0,0E0,0E0,0E0,0E0,0E0,0E0,0E0,0E0,0E0,0E0,0E0,0E0,0E0,0E0,0E0,0E0,0E0,0E0,0E0,0E0,0E0,0E0,0E0,0E0,0E0,0E0,0E0],"parents":[2147483647,0,0,1,1,2,2,3,3,4,4,5,5,6,6,7,7,8,8,9,9,10,10,11,11,12,12,13,13,14,14,15,15,16,16,17,17,18,18,19,19,20,20,21,21,22,22,23,23,24,24,26,26,27,27,28,28,30,30,31,31,32,32,33,33,34,34,35,35,36,36,37,37,38,38,39,39,40,40,41,41,42,42,43,43,44,44,46,46,47,47,48,48,49,49,50,50,51,51,52,52,53,53,54,54,55,55,57,57,58,58],"right_children":[2,4,6,8,10,12,14,16,18,20,22,24,26,28,30,32,34,36,38,40,42,44,46,48,50,-1,52,54,56,-1,58,60,62,64,66,68,70,72,74,76,78,80,82,84,86,-1,88,90,92,94,96,98,100,102,104,106,-1,108,110,-1,-1,-1,-1,-1,-1,-1,-1,-1,-1,-1,-1,-1,-1,-1,-1,-1,-1,-1,-1,-1,-1,-1,-1,-1,-1,-1,-1,-1,-1,-1,-1,-1,-1,-1,-1,-1,-1,-1,-1,-1,-1,-1,-1,-1,-1,-1,-1,-1,-1,-1,-1],"split_conditions":[7.2531E4,3.2E1,3.1E1,1.9E1,3.8E4,4E0,3.9E1,1.7E1,2.2E1,2.3233E4,7.5642E4,2E0,4.963E3,3.8E1,1.4931E4,1.6E1,1.8E1,2E1,1.74E3,3.9E1,1.6021E4,4.0153E4,4.8132E4,2.97887E5,2.88129E5,-1.0312867E-1,3.402713E6,2.011E3,2.011E3,-1.02750435E-1,1.163725E6,9E0,1.7354E3,6E0,1.0172175E7,4E1,3E0,1.5E3,1E3,1.409394E4,4.4E1,1.8712E3,3.344E4,2.8301E4,5.0719E4,-7.860186E-2,1.25074E5,2E0,1.4E1,4.606E2,2.001E3,5.6233E4,7.426E2,4.236E4,1.2E1,1.3E1,1.4895618E-1,4.7E1,1.999E3,-2.6152447E-2,6.7586335E-3,1.4280109E-1,7.507905E-2,-5.40944E-2,-7.361344E-2,-3.461578E-2,-7.806567E-2,1.5842361E-2,1.4357223E-1,-9.091956E-3,2.3487222E-1,1.0782443E-3,-7.38622E-2,2.2540513E-1,2.6612787E-2,3.9293963E-2,-2.7160076E-2,-5.0489064E-2,-3.176437E-2,1.9451268E-1,5.0255835E-2,-1.0526809E-2,3.4883533E-2,-6.7616686E-2,-4.920679E-2,-2.6082369E-3,-3.1572502E-2,-4.9799684E-2,-7.064577E-2,9.838719E-3,-2.6940046E-2,-5.9731513E-2,-3.0458296E-2,-1.1908651E-3,-8.177739E-2,-9.738343E-3,7.3723726E-2,1.5426646E-1,5.000164E-2,2.1302126E-1,1.1526042E-1,-9.66131E-2,-6.3224556E-3,5.6602616E-2,-3.1075834E-3,2.7558042E-2,8.53465E-2,-5.0048497E-2,-1.1236063E-2,7.734394E-3,1.8862626E-1],"split_indices":[5,0,0,0,4,0,0,0,0,5,4,0,4,0,4,0,0,0,5,0,4,5,5,4,4,0,5,1,1,0,5,0,6,3,7,4,4,4,4,7,0,9,5,5,4,0,4,3,3,6,1,4,6,4,3,3,0,0,1,0,0,0,0,0,0,0,0,0,0,0,0,0,0,0,0,0,0,0,0,0,0,0,0,0,0,0,0,0,0,0,0,0,0,0,0,0,0,0,0,0,0,0,0,0,0,0,0,0,0,0,0],"split_type":[0,0,0,0,0,0,0,0,0,0,0,0,0,0,0,0,0,0,0,0,0,0,0,0,0,0,0,0,0,0,0,0,0,0,0,0,0,0,0,0,0,0,0,0,0,0,0,0,0,0,0,0,0,0,0,0,0,0,0,0,0,0,0,0,0,0,0,0,0,0,0,0,0,0,0,0,0,0,0,0,0,0,0,0,0,0,0,0,0,0,0,0,0,0,0,0,0,0,0,0,0,0,0,0,0,0,0,0,0,0,0],"sum_hessian":[1.3299E4,9.782E3,3.517E3,5.73E3,4.052E3,2.451E3,1.066E3,3.862E3,1.868E3,3.424E3,6.28E2,1.82E2,2.269E3,6.42E2,4.24E2,2.985E3,8.77E2,1.11E2,1.757E3,3.231E3,1.93E2,3.35E2,2.93E2,1.51E2,3.1E1,4.4E1,2.225E3,5.88E2,5.4E1,2.7E1,3.97E2,2.763E3,2.22E2,5.04E2,3.73E2,5E1,6.1E1,8.49E2,9.08E2,9.62E2,2.269E3,2.3E1,1.7E2,2.31E2,1.04E2,1.64E2,1.29E2,6.4E1,8.7E1,1.3E1,1.8E1,1.88E3,3.45E2,3.37E2,2.51E2,3.7E1,1.7E1,3.94E2,3E0,1.539E3,1.224E3,1.23E2,9.9E1,1.24E2,3.8E2,3.54E2,1.9E1,6E0,4.4E1,1E0,6E1,7.35E2,1.14E2,4.8E1,8.6E2,1.27E2,8.35E2,9.15E2,1.354E3,2E1,3E0,1.2E2,5E1,1.29E2,1.02E2,2.7E1,7.7E1,6.6E1,6.3E1,8E0,5.6E1,7.3E1,1.4E1,1E0,1.2E1,3E0,1.5E1,2.37E2,1.643E3,9.6E1,2.49E2,7E0,3.3E2,1.46E2,1.05E2,1E1,2.7E1,3.44E2,5E1,1E0,2E0],"tree_param":{"num_deleted":"0","num_feature":"10","num_nodes":"111","size_leaf_vector":"1"}},{"base_weights":[1.878957E-4,-8.928341E-2,5.868857E-1,1.6476842E-2,-3.7828237E-1,-9.5986746E-2,6.717954E-1,-1.3078037E-1,2.2702704E-1,-4.4333678E-1,-2.783682E-1,1.5751164E0,5.2486044E-1,-2.0810964E-2,-5.252916E-1,1.5188751E0,8.0613844E-2,-4.6729758E-1,-2.2506253E-1,-1.9259211E-1,-4.0059566E-1,1.3448004E0,2.590487E0,2.671315E-1,1.1318263E0,-1.0148582E-1,6.0238564E-1,-4.4406345E-1,-8.0607694E-1,1.1212959E0,2.2120907E0,-2.4543707E-1,2.556222E-1,-5.4293835E-1,-4.083457E-1,1.4730102E-1,-2.7305612E-1,-2.718906E-1,3.07572E-1,-6.703039E-1,-3.495191E-1,2.388363E0,1.080283E0,2.68793E-1,-7.023325E-2,6.01252E-1,3.307896E-2,1.9703555E0,9.18283E-1,1.3111522E-3,-4.0555336E-2,2.0303181E-1,4.528164E-2,-6.101347E-2,-2.3215566E-2,-7.5564384E-2,-8.8428624E-2,1.7480007E-1,6.402316E-2,2.9682565E-1,1.8955956E-1,1.90365E-3,-6.0612407E-2,9.101593E-2,-5.2440832E-3,-4.3160778E-2,-5.7465937E-2,-2.468504E-2,-4.7812518E-2,1.6774032E-1,-1.8257843E-2,-3.1410314E-3,-3.421219E-2,-3.491848E-2,-1.141063E-2,2.5442955E-1,1.8661214E-2,-7.378041E-2,-5.4810643E-2,-1.4951582E-2,-4.0280502E-2,2.445801E-1,9.02984E-2,1.361234E-1,7.703311E-2,2.0568153E-2,1.0845673E-1,-2.6895914E-2,3.8079403E-2,2.11518E-1,7.9062775E-2,1.3257296E-1,5.5056524E-2],"categories":[],"categories_nodes":[],"categories_segments":[],"categories_sizes":[],"default_left":[0,0,0,0,0,0,0,0,0,0,0,0,0,0,0,0,0,0,0,0,0,0,0,0,0,0,0,0,0,0,0,0,0,0,0,0,0,0,0,0,0,0,0,0,0,0,0,0,0,0,0,0,0,0,0,0,0,0,0,0,0,0,0,0,0,0,0,0,0,0,0,0,0,0,0,0,0,0,0,0,0,0,0,0,0,0,0,0,0,0,0,0,0],"id":2,"left_children":[1,3,5,7,9,-1,11,13,15,17,19,21,23,25,27,29,31,33,35,37,39,41,43,45,47,49,51,53,55,57,59,61,63,65,67,69,71,73,75,77,79,81,83,-1,-1,85,87,89,91,-1,-1,-1,-1,-1,-1,-1,-1,-1,-1,-1,-1,-1,-1,-1,-1,-1,-1,-1,-1,-1,-1,-1,-1,-1,-1,-1,-1,-1,-1,-1,-1,-1,-1,-1,-1,-1,-1,-1,-1,-1,-1,-1,-1],"loss_changes":[6.9820416E2,3.5275232E2,2.317934E2,2.6202222E2,1.9974121E1,0E0,2.2069879E2,2.1573856E2,6.5771906E2,9.680206E0,1.2734535E1,5.100476E1,2.244914E2,1.9563594E2,2.436557E1,9.508484E1,1.7838034E2,7.2919617E0,3.3821087E0,2.8640448E1,6.694931E0,5.0419647E1,1.5364014E1,7.8963875E1,7.4829346E1,1.2004747E2,9.433498E1,2.952504E1,2.8633118E-1,6.7318054E1,2.5006714E1,1.0417979E2,4.101808E2,2.347641E0,1.0598862E1,1.141074E1,2.7597036E0,7.545948E0,2.6310032E1,2.472229E-1,4.4691467E0,1.0335236E0,1.244899E1,0E0,0E0,7.931E1,6.2591217E1,1.3021057E1,5.0660217E1,0E0,0E0,0E0,0E0,0E0,0E0,0E0,0E0,0E0,0E0,0E0,0E0,0E0,0E0,0E0,0E0,0E0,0E0,0E0,0E0,0E0,0E0,0E0,0E0,0E0,0E0,0E0,0E0,0E0,0E0,0E0,0E0,0E0,0E0,0E0,0E0,0E0,0E0,0E0,0E0,0E0,0E0,0E0,0E0],"parents":[2147483647,0,0,1,1,2,2,3,3,4,4,6,6,7,7,8,8,9,9,10,10,11,11,12,12,13,13,14,14,15,15,16,16,17,17,18,18,19,19,20,20,21,21,22,22,23,23,24,24,25,25,26,26,27,27,28,28,29,29,30,30,31,31,32,32,33,33,34,34,35,35,36,36,37,37,38,38,39,39,40,40,41,41,42,42,45,45,46,46,47,47,48,48],"right_children":[2,4,6,8,10,-1,12,14,16,18,20,22,24,26,28,30,32,34,36,38,40,42,44,46,48,50,52,54,56,58,60,62,64,66,68,70,72,74,76,78,80,82,84,-1,-1,86,88,90,92,-1,-1,-1,-1,-1,-1,-1,-1,-1,-1,-1,-1,-1,-1,-1,-1,-1,-1,-1,-1,-1,-1,-1,-1,-1,-1,-1,-1,-1,-1,-1,-1,-1,-1,-1,-1,-1,-1,-1,-1,-1,-1,-1,-1],"split_conditions":[3.6194E5,3.9E1,4.236E4,1.1548E4,2.013E3,-9.5986746E-2,2.49147E5,5.558E3,1.017E4,2.0157E3,7.365E3,6.83642E5,2.854873E6,3.6E3,1.5567E4,1.9008E4,3.8407E4,4.4E1,2.0498E3,3.352E3,7E3,1.414E5,1.302615E6,5.315E5,6.64E2,1.605E3,2E3,5.729E3,2.8779E4,6E3,5.558E3,3.08E4,5.8221E4,4.1E1,4.6E1,1.81E3,2.306136E4,1.5824E3,8.62E2,5.1E3,2.8085265E6,3.2E1,1.97782E5,2.68793E-1,-7.023325E-2,6.4436E5,1.163725E6,3.992412E6,2.5421E6,1.3111522E-3,-4.0555336E-2,2.0303181E-1,4.528164E-2,-6.101347E-2,-2.3215566E-2,-7.5564384E-2,-8.8428624E-2,1.7480007E-1,6.402316E-2,2.9682565E-1,1.8955956E-1,1.90365E-3,-6.0612407E-2,9.101593E-2,-5.2440832E-3,-4.3160778E-2,-5.7465937E-2,-2.468504E-2,-4.7812518E-2,1.6774032E-1,-1.8257843E-2,-3.1410314E-3,-3.421219E-2,-3.491848E-2,-1.141063E-2,2.5442955E-1,1.8661214E-2,-7.378041E-2,-5.4810643E-2,-1.4951582E-2,-4.0280502E-2,2.445801E-1,9.02984E-2,1.361234E-1,7.703311E-2,2.0568153E-2,1.0845673E-1,-2.6895914E-2,3.8079403E-2,2.11518E-1,7.9062775E-2,1.3257296E-1,5.5056524E-2],"split_indices":[5,0,4,5,1,0,4,4,4,6,4,5,5,5,4,5,5,0,9,5,5,4,5,4,6,4,4,5,4,4,4,4,4,0,0,4,7,6,4,5,7,0,4,0,0,5,5,4,4,0,0,0,0,0,0,0,0,0,0,0,0,0,0,0,0,0,0,0,0,0,0,0,0,0,0,0,0,0,0,0,0,0,0,0,0,0,0,0,0,0,0,0,0],"split_type":[0,0,0,0,0,0,0,0,0,0,0,0,0,0,0,0,0,0,0,0,0,0,0,0,0,0,0,0,0,0,0,0,0,0,0,0,0,0,0,0,0,0,0,0,0,0,0,0,0,0,0,0,0,0,0,0,0,0,0,0,0,0,0,0,0,0,0,0,0,0,0,0,0,0,0,0,0,0,0,0,0,0,0,0,0,0,0,0,0,0,0,0,0],"sum_hessian":[1.3299E4,1.154E4,1.759E3,8.449E3,3.091E3,9.1E1,1.668E3,4.972E3,3.477E3,1.87E3,1.221E3,2.32E2,1.436E3,3.889E3,1.083E3,3.53E2,3.124E3,1.684E3,1.86E2,7.19E2,5.02E2,1.91E2,4.1E1,1.009E3,4.27E2,3.444E3,4.45E2,8.42E2,2.41E2,2.26E2,1.27E2,1.091E3,2.033E3,7.34E2,9.5E2,2.1E1,1.65E2,6.21E2,9.8E1,7.8E1,4.24E2,3.7E1,1.54E2,4E1,1E0,4.15E2,5.94E2,8.5E1,3.42E2,2.502E3,9.42E2,4.1E1,4.04E2,4.71E2,3.71E2,1.53E2,8.8E1,9.7E1,1.29E2,3.5E1,9.2E1,6.3E2,4.61E2,6.5E2,1.383E3,1.66E2,5.68E2,2.88E2,6.62E2,3E0,1.8E1,3.7E1,1.28E2,4.16E2,2.05E2,4E0,9.4E1,4.7E1,3.1E1,9E1,3.34E2,3.5E1,2E0,7.9E1,7.5E1,2.29E2,1.86E2,3.18E2,2.76E2,7.5E1,1E1,1.61E2,1.81E2],"tree_param":{"num_deleted":"0","num_feature":"10","num_nodes":"93","size_leaf_vector":"1"}},{"base_weights":[3.1677235E-4,-1.2459782E-1,3.4768435E-1,-6.874113E-2,-4.7740027E-1,5.564454E-1,-2.8728046E-2,-1.6420111E-1,4.9579456E-1,-6.434006E-1,-3.8637307E-1,-3.034612E-1,6.317969E-1,1.5304536E-1,-3.8450864E-1,-7.569142E-2,-4.2343223E-1,1.3706639E0,1.3883308E-1,-8.042534E-2,-6.1098695E-1,-2.1458724E-1,-5.964688E-1,-3.675917E-1,1.0641981E-2,-8.345886E-2,6.616775E-1,6.44786E-1,1.917837E-2,-4.34001E-1,-8.7738685E-2,-1.373705E-1,8.8245857E-1,-5.478665E-1,-1.9388115E-1,2.23724E0,1.1053528E0,-1.2709316E-2,1.0162208E0,1.4009625E-1,-6.209245E-1,-3.0672377E-1,3.4020147E-3,-4.7445914E-1,-6.4594567E-1,-1.95628E-1,-4.904332E-1,-6.471235E-1,4.947512E-1,5.8865654E-1,1.4614447E0,7.895085E-1,-8.6987376E-2,-3.173562E-1,1.0797617E-1,-8.234817E-2,-4.1016445E-1,-1.8198426E-1,1.3243183E0,-2.3114631E-2,8.281143E-3,1.6109587E-1,6.0208954E-2,-7.067115E-2,-4.630578E-2,2.3055356E-2,-3.652565E-2,1.6976492E-1,2.6431784E-1,7.688626E-2,1.8533029E-1,2.7696252E-2,-1.425569E-2,1.5194441E-1,6.037215E-2,-6.1953474E-2,1.9691256E-1,-5.525094E-2,-7.198101E-2,-1.2289162E-2,-3.581768E-2,2.411394E-2,-1.392782E-2,-5.8699485E-2,-3.8929727E-2,-6.0969558E-2,-7.4679606E-2,9.4303135E-3,-2.3797454E-2,-5.2683737E-2,-2.7814394E-2,-8.691132E-4,-6.955651E-2,-4.1636422E-2,5.6850005E-2,1.8518113E-1,5.3707298E-2,1.882122E-1,8.902672E-2,1.7030126E-1,5.7065036E-2,-3.7539832E-2,6.2873745E-3,-8.436151E-4,5.3594608E-2,-2.609911E-2,-4.556824E-2,-7.705092E-2,-7.4558607E-3,4.5948448E-3,1.7351255E-1],"categories":[],"categories_nodes":[],"categories_segments":[],"categories_sizes":[],"default_left":[0,0,0,0,0,0,0,0,0,0,0,0,0,0,0,0,0,0,0,0,0,0,0,0,0,0,0,0,0,0,0,0,0,0,0,0,0,0,0,0,0,0,0,0,0,0,0,0,0,0,0,0,0,0,0,0,0,0,0,0,0,0,0,0,0,0,0,0,0,0,0,0,0,0,0,0,0,0,0,0,0,0,0,0,0,0,0,0,0,0,0,0,0,0,0,0,0,0,0,0,0,0,0,0,0,0,0,0,0,0,0],"id":3,"left_children":[1,3,5,7,9,11,13,15,17,19,21,23,25,27,29,31,33,35,37,-1,39,41,43,45,47,-1,49,51,53,55,57,59,61,63,65,67,69,71,73,75,77,79,81,83,85,87,89,91,93,95,97,99,-1,101,103,-1,105,107,109,-1,-1,-1,-1,-1,-1,-1,-1,-1,-1,-1,-1,-1,-1,-1,-1,-1,-1,-1,-1,-1,-1,-1,-1,-1,-1,-1,-1,-1,-1,-1,-1,-1,-1,-1,-1,-1,-1,-1,-1,-1,-1,-1,-1,-1,-1,-1,-1,-1,-1,-1,-1],"loss_changes":[5.7714734E2,1.9275467E2,2.7646127E2,4.5529504E2,1.9954224E1,1.4682336E2,8.1286194E1,1.6576468E2,3.8143378E2,1.9695435E0,3.1127213E1,3.6901932E0,9.173425E1,5.4756393E1,6.204258E0,3.1854025E2,5.2423004E1,7.8915955E1,1.1555641E2,0E0,3.0501556E0,9.601564E0,2.0417938E0,3.1149483E0,1.0509935E1,0E0,1.1827521E2,3.9705338E1,1.9607977E1,3.041565E0,8.491973E0,1.0455863E2,6.561522E1,1.5730713E1,4.72182E1,1.3474152E1,6.728314E1,2.794847E1,2.5652832E1,9.556265E0,2.2542877E0,3.1341133E0,4.8842053E0,8.831997E-1,5.463791E-1,8.2048416E-1,5.3354645E-1,4.2692852E-1,1.5133834E0,1.209162E2,3.917224E1,3.1616402E1,0E0,3.047104E0,2.5861607E1,0E0,2.2236404E0,3.67269E0,2.020928E0,0E0,0E0,0E0,0E0,0E0,0E0,0E0,0E0,0E0,0E0,0E0,0E0,0E0,0E0,0E0,0E0,0E0,0E0,0E0,0E0,0E0,0E0,0E0,0E0,0E0,0E0,0E0,0E0,0E0,0E0,0E0,0E0,0E0,0E0,0E0,0E0,0E0,0E0,0E0,0E0,0E0,0E0,0E0,0E0,0E0,0E0,0E0,0E0,0E0,0E0,0E0,0E0],"parents":[2147483647,0,0,1,1,2,2,3,3,4,4,5,5,6,6,7,7,8,8,9,9,10,10,11,11,12,12,13,13,14,14,15,15,16,16,17,17,18,18,20,20,21,21,22,22,23,23,24,24,26,26,27,27,28,28,29,29,30,30,31,31,32,32,33,33,34,34,35,35,36,36,37,37,38,38,39,39,40,40,41,41,42,42,43,43,44,44,45,45,46,46,47,47,48,48,49,49,50,50,51,51,53,53,54,54,56,56,57,57,58,58],"right_children":[2,4,6,8,10,12,14,16,18,20,22,24,26,28,30,32,34,36,38,-1,40,42,44,46,48,-1,50,52,54,56,58,60,62,64,66,68,70,72,74,76,78,80,82,84,86,88,90,92,94,96,98,100,-1,102,104,-1,106,108,110,-1,-1,-1,-1,-1,-1,-1,-1,-1,-1,-1,-1,-1,-1,-1,-1,-1,-1,-1,-1,-1,-1,-1,-1,-1,-1,-1,-1,-1,-1,-1,-1,-1,-1,-1,-1,-1,-1,-1,-1,-1,-1,-1,-1,-1,-1,-1,-1,-1,-1,-1,-1],"split_conditions":[7.2531E4,3.3926E4,2.5E1,1.4363E4,2.8301E4,4E0,3.9E1,5.379E3,1.207E4,1.1548E4,7.5642E4,2E0,4.963E3,9.4705E4,4.7E1,4.937E3,7.789E3,5.715E3,4.2556E4,-8.042534E-2,1.2E4,5.4551E4,9.8643E4,2.97887E5,2.88129E5,-8.345886E-2,7.046043E6,4.32637E5,3E0,4.8E3,5.315E5,1.311E3,3E3,3.75E3,8.82E3,1.7434E4,2.5247E4,1.8274E4,2.0045E4,1.373E3,6.0254E4,4.236E4,4.7611E4,4.6397E4,1.65E5,2E0,1.4E1,4.606E2,8E0,3.2679E4,3.992412E6,3.546E4,-8.6987376E-2,1.066107E6,2E0,-8.234817E-2,1.71476E5,1.4931E4,1.999E3,-2.3114631E-2,8.281143E-3,1.6109587E-1,6.0208954E-2,-7.067115E-2,-4.630578E-2,2.3055356E-2,-3.652565E-2,1.6976492E-1,2.6431784E-1,7.688626E-2,1.8533029E-1,2.7696252E-2,-1.425569E-2,1.5194441E-1,6.037215E-2,-6.1953474E-2,1.9691256E-1,-5.525094E-2,-7.198101E-2,-1.2289162E-2,-3.581768E-2,2.411394E-2,-1.392782E-2,-5.8699485E-2,-3.8929727E-2,-6.0969558E-2,-7.4679606E-2,9.4303135E-3,-2.3797454E-2,-5.2683737E-2,-2.7814394E-2,-8.691132E-4,-6.955651E-2,-4.1636422E-2,5.6850005E-2,1.8518113E-1,5.3707298E-2,1.882122E-1,8.902672E-2,1.7030126E-1,5.7065036E-2,-3.7539832E-2,6.2873745E-3,-8.436151E-4,5.3594608E-2,-2.609911E-2,-4.556824E-2,-7.705092E-2,-7.4558607E-3,4.5948448E-3,1.7351255E-1],"split_indices":[5,4,0,5,5,0,0,4,4,5,4,0,4,4,0,5,5,4,5,0,5,5,4,4,4,0,5,5,3,4,4,5,4,5,4,5,5,4,4,6,4,4,4,5,4,3,3,6,3,4,4,4,0,5,2,0,4,4,1,0,0,0,0,0,0,0,0,0,0,0,0,0,0,0,0,0,0,0,0,0,0,0,0,0,0,0,0,0,0,0,0,0,0,0,0,0,0,0,0,0,0,0,0,0,0,0,0,0,0,0,0],"split_type":[0,0,0,0,0,0,0,0,0,0,0,0,0,0,0,0,0,0,0,0,0,0,0,0,0,0,0,0,0,0,0,0,0,0,0,0,0,0,0,0,0,0,0,0,0,0,0,0,0,0,0,0,0,0,0,0,0,0,0,0,0,0,0,0,0,0,0,0,0,0,0,0,0,0,0,0,0,0,0,0,0,0,0,0,0,0,0,0,0,0,0,0,0,0,0,0,0,0,0,0,0,0,0,0,0,0,0,0,0,0,0],"sum_hessian":[1.3299E4,9.782E3,3.517E3,8.446E3,1.336E3,2.262E3,1.255E3,7.225E3,1.221E3,4.71E2,8.65E2,1.82E2,2.08E3,8.31E2,4.24E2,5.387E3,1.838E3,3.53E2,8.68E2,7.5E1,3.96E2,4.77E2,3.88E2,1.51E2,3.1E1,4.1E1,2.039E3,1.77E2,6.54E2,3.63E2,6.1E1,5.062E3,3.25E2,1.191E3,6.47E2,8.1E1,2.72E2,7.41E2,1.27E2,5E0,3.91E2,3.35E2,1.42E2,1.15E2,2.73E2,6.4E1,8.7E1,1.3E1,1.8E1,1.87E3,1.69E2,1.62E2,1.5E1,1.36E2,5.18E2,1.9E1,3.44E2,5.8E1,3E0,3.55E3,1.512E3,8.9E1,2.36E2,4.12E2,7.79E2,1.86E2,4.61E2,3.7E1,4.4E1,1.89E2,8.3E1,2.29E2,5.12E2,5.6E1,7.1E1,4E0,1E0,2.35E2,1.56E2,7.4E1,2.61E2,5.3E1,8.9E1,4.7E1,6.8E1,2.06E2,6.7E1,8E0,5.6E1,7.3E1,1.4E1,1E0,1.2E1,1E0,1.7E1,7.2E1,1.798E3,9.6E1,7.3E1,3E1,1.32E2,1.18E2,1.8E1,4.08E2,1.1E2,8.2E1,2.62E2,8E0,5E1,1E0,2E0],"tree_param":{"num_deleted":"0","num_feature":"10","num_nodes":"111","size_leaf_vector":"1"}},{"base_weights":[3.6318024E-4,-7.271776E-2,4.960647E-1,1.5553518E-2,-3.144227E-1,-7.847873E-2,5.685878E-1,-1.0207752E-1,1.8173635E-1,-3.8241383E-1,-2.4280843E-1,1.4267969E0,4.3957448E-1,1.6465604E-2,-3.7447035E-1,1.2526377E0,6.1976068E-2,-4.09715E-1,-2.1421836E-1,-2.8550667E-1,-9.687897E-2,1.2074798E0,2.2805376E0,2.5950354E-1,1.0412331E0,-8.434835E-2,5.58125E-1,-6.385012E-1,-2.8527087E-1,9.271063E-1,1.8201612E0,1.7418341E-1,-3.082248E-1,-4.6515477E-1,-3.3962613E-1,1.07363015E-1,-2.4977359E-1,-3.1655377E-1,-8.896578E-2,2.5458017E-1,-1.6464655E-1,1.8764321E0,9.1311276E-1,2.3732982E0,-7.61322E-2,3.6225045E-1,-1.9142595E-1,1.8451015E0,8.590171E-1,7.4993707E-3,-3.1944476E-2,2.0155345E-1,4.2584192E-2,-7.180649E-2,-5.6094684E-2,-1.1646319E-2,-5.21713E-2,1.558908E-1,5.859021E-2,2.4227004E-1,1.5673487E-1,-9.137724E-3,6.398451E-2,-6.452992E-2,-1.4008798E-2,-4.2324997E-2,-6.0385E-2,1.997663E-2,-4.254455E-2,8.18871E-2,-1.9192634E-2,-6.572019E-3,-2.9767687E-2,-5.3477563E-2,-2.933124E-2,-2.26173E-2,1.5859483E-2,-7.1115964E-3,5.392207E-2,-2.3787322E-2,1.9962655E-3,2.3239382E-1,1.6054597E-1,6.94406E-2,1.22670606E-1,2.4010949E-1,6.307127E-2,2.0242374E-2,1.0842011E-1,-3.6754318E-2,1.6892275E-2,1.9354606E-1,4.821304E-2,1.2860005E-1,5.1510394E-2],"categories":[],"categories_nodes":[],"categories_segments":[],"categories_sizes":[],"default_left":[0,0,0,0,0,0,0,0,0,0,0,0,0,0,0,0,0,0,0,0,0,0,0,0,0,0,0,0,0,0,0,0,0,0,0,0,0,0,0,0,0,0,0,0,0,0,0,0,0,0,0,0,0,0,0,0,0,0,0,0,0,0,0,0,0,0,0,0,0,0,0,0,0,0,0,0,0,0,0,0,0,0,0,0,0,0,0,0,0,0,0,0,0,0,0],"id":4,"left_children":[1,3,5,7,9,-1,11,13,15,17,19,21,23,25,27,29,31,33,35,37,39,41,43,45,47,49,51,53,55,57,59,61,63,65,67,69,71,73,75,77,79,81,83,85,-1,87,89,91,93,-1,-1,-1,-1,-1,-1,-1,-1,-1,-1,-1,-1,-1,-1,-1,-1,-1,-1,-1,-1,-1,-1,-1,-1,-1,-1,-1,-1,-1,-1,-1,-1,-1,-1,-1,-1,-1,-1,-1,-1,-1,-1,-1,-1,-1,-1],"loss_changes":[4.8184634E2,2.4732718E2,1.5919748E2,1.6602237E2,1.5006378E1,0E0,1.7851837E2,1.605858E2,4.5136755E2,7.2088013E0,9.399742E0,3.6753906E1,1.5227426E2,1.8931435E2,3.533339E1,6.371283E1,1.3160852E2,5.1499023E0,2.5880089E0,7.1111984E0,8.235147E0,3.1762589E1,1.3657761E1,5.033914E1,4.587381E1,1.09521706E2,1.04019806E2,1.9420013E0,4.5001297E1,4.802179E1,1.5700989E1,3.0067938E2,4.1678802E1,4.1615295E0,2.8183197E1,5.054939E0,1.7614222E0,4.9656296E0,5.504573E0,5.2298994E0,3.911543E0,2.4533691E0,7.3783646E0,4.7155762E-1,0E0,1.0178262E2,1.2881735E1,6.3330994E0,3.839839E1,0E0,0E0,0E0,0E0,0E0,0E0,0E0,0E0,0E0,0E0,0E0,0E0,0E0,0E0,0E0,0E0,0E0,0E0,0E0,0E0,0E0,0E0,0E0,0E0,0E0,0E0,0E0,0E0,0E0,0E0,0E0,0E0,0E0,0E0,0E0,0E0,0E0,0E0,0E0,0E0,0E0,0E0,0E0,0E0,0E0,0E0],"parents":[2147483647,0,0,1,1,2,2,3,3,4,4,6,6,7,7,8,8,9,9,10,10,11,11,12,12,13,13,14,14,15,15,16,16,17,17,18,18,19,19,20,20,21,21,22,22,23,23,24,24,25,25,26,26,27,27,28,28,29,29,30,30,31,31,32,32,33,33,34,34,35,35,36,36,37,37,38,38,39,39,40,40,41,41,42,42,43,43,45,45,46,46,47,47,48,48],"right_children":[2,4,6,8,10,-1,12,14,16,18,20,22,24,26,28,30,32,34,36,38,40,42,44,46,48,50,52,54,56,58,60,62,64,66,68,70,72,74,76,78,80,82,84,86,-1,88,90,92,94,-1,-1,-1,-1,-1,-1,-1,-1,-1,-1,-1,-1,-1,-1,-1,-1,-1,-1,-1,-1,-1,-1,-1,-1,-1,-1,-1,-1,-1,-1,-1,-1,-1,-1,-1,-1,-1,-1,-1,-1,-1,-1,-1,-1,-1,-1],"split_conditions":[3.8607E5,3.9E1,4.236E4,1.1548E4,2.011E3,-7.847873E-2,2.49147E5,3.755E3,1.017E4,1.83E3,1.5824E3,6.83642E5,4.048699E6,2.339E3,3.268E3,1.9008E4,1.25074E5,7E3,1.8712E3,2.4E1,1.7984E3,1.58285E5,1.302615E6,1.2809E6,5.967E2,9.022116E4,1.196E3,2E3,9.523E3,5.23E3,5.558E3,6.5893E4,1.45368E5,6.914E3,3.13038E3,5E0,2.557473E4,2E0,2.017E3,1.5E3,4.7E1,1.2E5,5.21E5,2.3E1,-7.61322E-2,1.502E6,2.854873E6,3.992412E6,2.8539E6,7.4993707E-3,-3.1944476E-2,2.0155345E-1,4.2584192E-2,-7.180649E-2,-5.6094684E-2,-1.1646319E-2,-5.21713E-2,1.558908E-1,5.859021E-2,2.4227004E-1,1.5673487E-1,-9.137724E-3,6.398451E-2,-6.452992E-2,-1.4008798E-2,-4.2324997E-2,-6.0385E-2,1.997663E-2,-4.254455E-2,8.18871E-2,-1.9192634E-2,-6.572019E-3,-2.9767687E-2,-5.3477563E-2,-2.933124E-2,-2.26173E-2,1.5859483E-2,-7.1115964E-3,5.392207E-2,-2.3787322E-2,1.9962655E-3,2.3239382E-1,1.6054597E-1,6.94406E-2,1.22670606E-1,2.4010949E-1,6.307127E-2,2.0242374E-2,1.0842011E-1,-3.6754318E-2,1.6892275E-2,1.9354606E-1,4.821304E-2,1.2860005E-1,5.1510394E-2],"split_indices":[5,0,4,5,1,0,4,4,4,6,6,5,5,5,5,5,4,5,9,3,9,4,5,4,6,7,4,5,4,4,4,5,5,4,8,3,7,3,1,5,0,4,5,0,0,5,5,4,4,0,0,0,0,0,0,0,0,0,0,0,0,0,0,0,0,0,0,0,0,0,0,0,0,0,0,0,0,0,0,0,0,0,0,0,0,0,0,0,0,0,0,0,0,0,0],"split_type":[0,0,0,0,0,0,0,0,0,0,0,0,0,0,0,0,0,0,0,0,0,0,0,0,0,0,0,0,0,0,0,0,0,0,0,0,0,0,0,0,0,0,0,0,0,0,0,0,0,0,0,0,0,0,0,0,0,0,0,0,0,0,0,0,0,0,0,0,0,0,0,0,0,0,0,0,0,0,0,0,0,0,0,0,0,0,0,0,0,0,0,0,0,0,0],"sum_hessian":[1.3299E4,1.1591E4,1.708E3,8.491E3,3.1E3,9.1E1,1.617E3,4.972E3,3.519E3,1.588E3,1.512E3,2.1E2,1.407E3,3.465E3,1.507E3,3.53E2,3.166E3,1.365E3,2.23E2,1.169E3,3.43E2,1.69E2,4.1E1,1.084E3,3.23E2,2.922E3,5.43E2,3.79E2,1.128E3,2.26E2,1.27E2,2.43E3,7.36E2,7.59E2,6.06E2,2.2E1,2.01E2,1.009E3,1.6E2,5.5E1,2.88E2,5E1,1.19E2,4E1,1E0,8.83E2,2.01E2,5.8E1,2.65E2,1.742E3,1.18E3,4.4E1,4.99E2,1.83E2,1.96E2,6.59E2,4.69E2,7.8E1,1.48E2,3.5E1,9.2E1,1.548E3,8.82E2,2.44E2,4.92E2,5.86E2,1.73E2,8.3E1,5.23E2,6E0,1.6E1,4.2E1,1.59E2,9.5E1,9.14E2,1.03E2,5.7E1,2.6E1,2.9E1,2.06E2,8.2E1,1.6E1,3.4E1,7.2E1,4.7E1,3.9E1,1E0,7.24E2,1.59E2,1.35E2,6.6E1,5.4E1,4E0,1.17E2,1.48E2],"tree_param":{"num_deleted":"0","num_feature":"10","num_nodes":"95","size_leaf_vector":"1"}},{"base_weights":[4.560915E-4,-9.017353E-2,3.2579064E-1,9.02672E-3,-2.3288356E-1,4.9373114E-1,-4.4133333E-3,-9.1960415E-2,2.1832538E-1,-5.115958E-1,-2.1257669E-1,-3.4531382E-1,5.5032545E-1,2.1418892E-1,-2.0135902E-1,2.6409344E-3,-4.245639E-1,1.4383639E0,1.4373793E-1,-7.340569E-1,-4.6646303E-1,-3.927581E-2,-2.8294906E-1,-2.002855E-1,-4.8243338E-1,-6.8419546E-2,5.838147E-1,3.0787656E-1,-7.102385E-2,-3.9117697E-1,-6.2924735E-2,-7.740461E-2,7.582727E-1,-5.2770495E-1,-2.8383818E-1,1.0581285E0,1.7354133E0,-5.1199477E-2,2.9895616E-1,-1.9099288E-1,-7.5394884E-2,-1.21865585E-1,-4.822764E-1,4.429192E-1,-9.5361285E-2,-3.679487E-1,-2.228692E-1,6.972913E-2,-2.3100944E-1,-5.552799E-1,-3.8039148E-1,3.7261182E-1,8.031893E-1,1.098191E0,1.6612726E-1,-4.5219952E-1,-2.4781007E-1,7.0989905E-3,-4.203335E-1,-1.9466419E-2,6.9003636E-3,8.506136E-2,1.1601525E-2,-6.0855705E-2,-4.892775E-2,-2.5578568E-2,-6.667355E-2,6.135227E-3,1.16068125E-1,-7.922149E-3,1.7659594E-1,1.0933141E-2,-3.25339E-2,1.8766317E-1,2.181149E-2,-3.6824465E-2,8.175534E-3,-1.9778188E-2,-3.9385115E-3,-6.349825E-2,-4.573333E-2,2.4925066E-2,1.3987994E-1,-2.321701E-2,1.1496026E-2,-2.9264063E-2,-4.2858154E-2,-7.180015E-3,-2.7397985E-2,1.884524E-3,8.631363E-3,-2.807636E-2,-6.5246276E-3,-5.7702105E-2,-2.479656E-2,-8.734673E-3,-4.1084483E-2,2.8809324E-2,9.731482E-2,7.442702E-2,1.5485798E-1,2.1537307E-1,9.5186405E-2,-3.0114686E-3,5.9917975E-2,-5.4318547E-2,-4.2316813E-2,-8.381526E-3,-2.8573815E-2,-1.1484596E-3,1.5471703E-1,-5.5259176E-2,-3.0140443E-2],"categories":[],"categories_nodes":[],"categories_segments":[],"categories_sizes":[],"default_left":[0,0,0,0,0,0,0,0,0,0,0,0,0,0,0,0,0,0,0,0,0,0,0,0,0,0,0,0,0,0,0,0,0,0,0,0,0,0,0,0,0,0,0,0,0,0,0,0,0,0,0,0,0,0,0,0,0,0,0,0,0,0,0,0,0,0,0,0,0,0,0,0,0,0,0,0,0,0,0,0,0,0,0,0,0,0,0,0,0,0,0,0,0,0,0,0,0,0,0,0,0,0,0,0,0,0,0,0,0,0,0,0,0],"id":5,"left_children":[1,3,5,7,9,11,13,15,17,19,21,23,25,27,29,31,33,35,37,39,41,43,45,47,49,-1,51,53,-1,55,57,59,61,63,65,67,69,71,73,75,-1,77,79,81,83,85,87,89,91,93,95,97,99,101,103,105,107,109,111,-1,-1,-1,-1,-1,-1,-1,-1,-1,-1,-1,-1,-1,-1,-1,-1,-1,-1,-1,-1,-1,-1,-1,-1,-1,-1,-1,-1,-1,-1,-1,-1,-1,-1,-1,-1,-1,-1,-1,-1,-1,-1,-1,-1,-1,-1,-1,-1,-1,-1,-1,-1,-1,-1],"loss_changes":[3.9217917E2,1.4727603E2,1.6070966E2,1.2975574E2,2.4035828E1,9.140903E1,4.214874E1,1.302966E2,1.8161038E2,2.559227E0,4.850296E1,2.3294935E0,7.48172E1,4.040451E1,1.35082E1,1.9512268E2,1.3160095E1,1.11528015E1,5.702108E1,3.6371994E-1,1.2653999E0,3.1142996E1,1.4365036E1,5.221586E-1,2.4964714E-1,0E0,8.092163E1,4.709276E1,0E0,1.7863884E0,7.486086E0,5.0091812E1,1.822705E1,1.3427124E0,4.0185413E0,5.3465576E0,3.6320038E0,3.6826145E1,1.3338147E2,1.7514125E-1,0E0,6.734966E-2,5.932808E-1,2.1866222E1,2.969252E1,5.21698E0,1.2797577E1,4.2805895E-3,4.352889E-1,8.4085464E-2,2.2291565E-1,4.514669E1,3.6572754E1,7.8349915E0,3.0526964E1,1.6900253E-1,3.9279175E-1,7.2014008E0,6.0418415E-1,0E0,0E0,0E0,0E0,0E0,0E0,0E0,0E0,0E0,0E0,0E0,0E0,0E0,0E0,0E0,0E0,0E0,0E0,0E0,0E0,0E0,0E0,0E0,0E0,0E0,0E0,0E0,0E0,0E0,0E0,0E0,0E0,0E0,0E0,0E0,0E0,0E0,0E0,0E0,0E0,0E0,0E0,0E0,0E0,0E0,0E0,0E0,0E0,0E0,0E0,0E0,0E0,0E0,0E0],"parents":[2147483647,0,0,1,1,2,2,3,3,4,4,5,5,6,6,7,7,8,8,9,9,10,10,11,11,12,12,13,13,14,14,15,15,16,16,17,17,18,18,19,19,20,20,21,21,22,22,23,23,24,24,26,26,27,27,29,29,30,30,31,31,32,32,33,33,34,34,35,35,36,36,37,37,38,38,39,39,41,41,42,42,43,43,44,44,45,45,46,46,47,47,48,48,49,49,50,50,51,51,52,52,53,53,54,54,55,55,56,56,57,57,58,58],"right_children":[2,4,6,8,10,12,14,16,18,20,22,24,26,28,30,32,34,36,38,40,42,44,46,48,50,-1,52,54,-1,56,58,60,62,64,66,68,70,72,74,76,-1,78,80,82,84,86,88,90,92,94,96,98,100,102,104,106,108,110,112,-1,-1,-1,-1,-1,-1,-1,-1,-1,-1,-1,-1,-1,-1,-1,-1,-1,-1,-1,-1,-1,-1,-1,-1,-1,-1,-1,-1,-1,-1,-1,-1,-1,-1,-1,-1,-1,-1,-1,-1,-1,-1,-1,-1,-1,-1,-1,-1,-1,-1,-1,-1,-1,-1],"split_conditions":[1.18472E5,3.2E1,2.5E1,1.9E1,3.3E1,2E0,2.97887E5,1.7E1,2.2E1,2.93E2,4E1,3.796E5,4.963E3,7.89623E5,4.07657E5,1.6E1,1.8E1,2E1,1.624E3,1E1,6.26E2,1.409394E4,4.4E1,2E0,4.63374E5,-6.8419546E-2,2.01E3,9.4705E4,-7.102385E-2,2.96355E5,6.409591E5,9E0,4.6413E4,1.096E3,1.369368E7,2.3E1,3E0,5.4E2,1E3,2.016E3,-7.5394884E-2,4.1E2,8.84E2,1.73E2,2E0,3.08E3,4.6E1,2.001E3,2.017E3,1.4E1,8.876E2,5.441525E6,9.188E6,3.2679E4,2.82188E5,1.68154E5,3.39606E5,4.8E1,2.854873E6,-1.9466419E-2,6.9003636E-3,8.506136E-2,1.1601525E-2,-6.0855705E-2,-4.892775E-2,-2.5578568E-2,-6.667355E-2,6.135227E-3,1.16068125E-1,-7.922149E-3,1.7659594E-1,1.0933141E-2,-3.25339E-2,1.8766317E-1,2.181149E-2,-3.6824465E-2,8.175534E-3,-1.9778188E-2,-3.9385115E-3,-6.349825E-2,-4.573333E-2,2.4925066E-2,1.3987994E-1,-2.321701E-2,1.1496026E-2,-2.9264063E-2,-4.2858154E-2,-7.180015E-3,-2.7397985E-2,1.884524E-3,8.631363E-3,-2.807636E-2,-6.5246276E-3,-5.7702105E-2,-2.479656E-2,-8.734673E-3,-4.1084483E-2,2.8809324E-2,9.731482E-2,7.442702E-2,1.5485798E-1,2.1537307E-1,9.5186405E-2,-3.0114686E-3,5.9917975E-2,-5.4318547E-2,-4.2316813E-2,-8.381526E-3,-2.8573815E-2,-1.1484596E-3,1.5471703E-1,-5.5259176E-2,-3.0140443E-2],"split_indices":[5,0,0,0,0,0,4,0,0,5,0,4,4,5,5,0,0,0,5,4,4,7,0,3,5,0,1,4,0,5,8,0,4,9,7,4,4,4,4,1,0,5,5,5,2,4,0,1,1,3,6,5,5,4,5,5,4,0,5,0,0,0,0,0,0,0,0,0,0,0,0,0,0,0,0,0,0,0,0,0,0,0,0,0,0,0,0,0,0,0,0,0,0,0,0,0,0,0,0,0,0,0,0,0,0,0,0,0,0,0,0,0,0],"split_type":[0,0,0,0,0,0,0,0,0,0,0,0,0,0,0,0,0,0,0,0,0,0,0,0,0,0,0,0,0,0,0,0,0,0,0,0,0,0,0,0,0,0,0,0,0,0,0,0,0,0,0,0,0,0,0,0,0,0,0,0,0,0,0,0,0,0,0,0,0,0,0,0,0,0,0,0,0,0,0,0,0,0,0,0,0,0,0,0,0,0,0,0,0,0,0,0,0,0,0,0,0,0,0,0,0,0,0,0,0,0,0,0,0],"sum_hessian":[1.3299E4,1.0402E4,2.897E3,6.137E3,4.265E3,1.92E3,9.77E2,4.14E3,1.997E3,2.88E2,3.977E3,1.21E2,1.799E3,4.63E2,5.14E2,3.224E3,9.16E2,1.14E2,1.883E3,4.6E1,2.42E2,1.149E3,2.828E3,6E1,6.1E1,4.7E1,1.752E3,4.21E2,4.2E1,2.16E2,2.98E2,2.916E3,3.08E2,5.27E2,3.89E2,5.2E1,6.2E1,8.35E2,1.048E3,2E0,4.4E1,1.1E1,2.31E2,1.19E2,1.03E3,1.169E3,1.659E3,6E0,5.4E1,3.3E1,2.8E1,8.94E2,8.58E2,6.3E1,3.58E2,1.5E2,6.6E1,2.5E2,4.8E1,1.619E3,1.297E3,2.69E2,3.9E1,1.65E2,3.62E2,3.64E2,2.5E1,5E0,4.7E1,1E0,6.1E1,5.27E2,3.08E2,5E1,9.98E2,1E0,1E0,5E0,6E0,2.9E1,2.02E2,1E2,1.9E1,6.24E2,4.06E2,5.24E2,6.45E2,4.2E2,1.239E3,2E0,4E0,4.1E1,1.3E1,3E1,3E0,3E0,2.5E1,7.85E2,1.09E2,7.97E2,6.1E1,6E0,5.7E1,2.47E2,1.11E2,3.2E1,1.18E2,1.3E1,5.3E1,2.48E2,2E0,2.1E1,2.7E1],"tree_param":{"num_deleted":"0","num_feature":"10","num_nodes":"113","size_leaf_vector":"1"}},{"base_weights":[4.504696E-4,-5.9538975E-2,4.0735346E-1,1.1977464E-2,-2.5536552E-1,-6.391738E-2,4.6660757E-1,-8.069664E-2,1.5985018E-1,-2.920522E-1,-1.4858362E-1,1.1014688E0,3.2008055E-1,2.3160304E-3,-3.7587896E-1,8.453268E-1,-8.774774E-3,-3.6097866E-1,-2.353882E-1,-7.57812E-2,-2.7172068E-1,8.8026977E-1,1.8251704E0,5.358666E-2,7.1270764E-1,-5.3222902E-2,6.96545E-1,-2.9334527E-1,-5.6744486E-1,1.4831057E0,6.3925207E-1,-2.5967255E-1,1.7699508E-1,-3.856836E-1,-2.228455E-1,-8.690153E-2,-2.8248066E-1,-1.3800254E-1,1.2233407E0,-4.2384398E-1,-2.2340052E-1,1.4864153E0,5.850035E-1,1.8739964E0,-7.719133E-2,3.1768417E-1,-1.862824E-1,1.4475372E0,5.8894455E-1,4.1662646E-3,-2.8489579E-2,1.351006E-1,5.077932E-2,-4.641187E-2,-1.333611E-2,-6.277203E-2,-5.0564904E-2,1.1250331E-1,1.7968911E-1,1.9940479E-2,1.2706773E-1,-8.303838E-3,-4.4128515E-2,6.480288E-2,-1.2747114E-2,-4.6219E-2,-3.359557E-2,3.776454E-2,-2.446526E-2,4.985899E-2,-1.6164621E-2,-3.8866874E-2,-1.9426001E-2,-2.0046333E-2,1.2339883E-2,2.754936E-1,5.2072264E-2,-3.7131872E-2,-5.2872103E-2,1.5090425E-1,-2.3780713E-2,1.8325944E-1,1.1929989E-1,2.7762849E-2,7.0767276E-2,2.498248E-1,1.6696733E-1,6.963977E-3,8.486227E-2,-4.1661445E-2,5.1263435E-4,1.0983061E-1,1.8252562E-1,1.1730645E-1,3.981631E-2],"categories":[],"categories_nodes":[],"categories_segments":[],"categories_sizes":[],"default_left":[0,0,0,0,0,0,0,0,0,0,0,0,0,0,0,0,0,0,0,0,0,0,0,0,0,0,0,0,0,0,0,0,0,0,0,0,0,0,0,0,0,0,0,0,0,0,0,0,0,0,0,0,0,0,0,0,0,0,0,0,0,0,0,0,0,0,0,0,0,0,0,0,0,0,0,0,0,0,0,0,0,0,0,0,0,0,0,0,0,0,0,0,0,0,0],"id":6,"left_children":[1,3,5,7,9,-1,11,13,15,17,19,21,23,25,27,29,31,33,35,37,39,41,43,45,47,49,51,53,55,57,59,61,63,65,67,69,71,73,75,77,79,81,83,85,-1,87,89,91,93,-1,-1,-1,-1,-1,-1,-1,-1,-1,-1,-1,-1,-1,-1,-1,-1,-1,-1,-1,-1,-1,-1,-1,-1,-1,-1,-1,-1,-1,-1,-1,-1,-1,-1,-1,-1,-1,-1,-1,-1,-1,-1,-1,-1,-1,-1],"loss_changes":[3.2467572E2,1.623469E2,1.0627515E2,1.16387024E2,1.2104706E1,0E0,1.501608E2,1.27935585E2,3.7821283E2,8.925354E0,7.106327E0,4.6898224E1,1.376585E2,1.5719432E2,1.7952545E1,8.395578E1,1.2248844E2,3.4597168E0,8.84906E0,4.0666214E1,2.0737457E0,4.1010437E1,1.0322937E1,4.9788002E1,4.753009E1,8.299546E1,3.662024E1,2.18769E1,9.6390533E-1,1.5618652E1,1.3583464E2,3.5827667E1,2.1663754E2,3.192688E0,2.1875868E0,1.3515642E1,8.945869E0,7.8455296E0,2.3316353E1,1.8928528E-1,5.999511E0,5.533386E0,5.7986946E0,4.6296234E0,0E0,4.9195328E1,1.8166214E1,8.020569E0,5.0460663E1,0E0,0E0,0E0,0E0,0E0,0E0,0E0,0E0,0E0,0E0,0E0,0E0,0E0,0E0,0E0,0E0,0E0,0E0,0E0,0E0,0E0,0E0,0E0,0E0,0E0,0E0,0E0,0E0,0E0,0E0,0E0,0E0,0E0,0E0,0E0,0E0,0E0,0E0,0E0,0E0,0E0,0E0,0E0,0E0,0E0,0E0],"parents":[2147483647,0,0,1,1,2,2,3,3,4,4,6,6,7,7,8,8,9,9,10,10,11,11,12,12,13,13,14,14,15,15,16,16,17,17,18,18,19,19,20,20,21,21,22,22,23,23,24,24,25,25,26,26,27,27,28,28,29,29,30,30,31,31,32,32,33,33,34,34,35,35,36,36,37,37,38,38,39,39,40,40,41,41,42,42,43,43,45,45,46,46,47,47,48,48],"right_children":[2,4,6,8,10,-1,12,14,16,18,20,22,24,26,28,30,32,34,36,38,40,42,44,46,48,50,52,54,56,58,60,62,64,66,68,70,72,74,76,78,80,82,84,86,-1,88,90,92,94,-1,-1,-1,-1,-1,-1,-1,-1,-1,-1,-1,-1,-1,-1,-1,-1,-1,-1,-1,-1,-1,-1,-1,-1,-1,-1,-1,-1,-1,-1,-1,-1,-1,-1,-1,-1,-1,-1,-1,-1,-1,-1,-1,-1,-1,-1],"split_conditions":[3.8607E5,3.9E1,4.236E4,1.4363E4,1.5601E3,-6.391738E-2,2.88129E5,6.191E3,2.0045E4,4.5E1,3.755E3,6.83642E5,2.100123E6,5.526E3,1.5567E4,7.6E3,6.5893E4,2.2E1,4.6E1,3.268E3,4.937E3,1.79295E5,1.302615E6,5.94436E5,5.967E2,1.87E3,3E3,5.93E3,8.865E3,1.8002E4,2.746E4,4.6413E4,8.8254E4,2.819E3,6.876E2,6.876E2,4.7E1,1.532E3,2.05E3,8.14E3,4.963E3,1.414E5,4.63374E5,9.181E2,-7.719133E-2,8.46657E5,9.81351E5,1.7E1,1.4457E6,4.1662646E-3,-2.8489579E-2,1.351006E-1,5.077932E-2,-4.641187E-2,-1.333611E-2,-6.277203E-2,-5.0564904E-2,1.1250331E-1,1.7968911E-1,1.9940479E-2,1.2706773E-1,-8.303838E-3,-4.4128515E-2,6.480288E-2,-1.2747114E-2,-4.6219E-2,-3.359557E-2,3.776454E-2,-2.446526E-2,4.985899E-2,-1.6164621E-2,-3.8866874E-2,-1.9426001E-2,-2.0046333E-2,1.2339883E-2,2.754936E-1,5.2072264E-2,-3.7131872E-2,-5.2872103E-2,1.5090425E-1,-2.3780713E-2,1.8325944E-1,1.1929989E-1,2.7762849E-2,7.0767276E-2,2.498248E-1,1.6696733E-1,6.963977E-3,8.486227E-2,-4.1661445E-2,5.1263435E-4,1.0983061E-1,1.8252562E-1,1.1730645E-1,3.981631E-2],"split_indices":[5,0,4,5,6,0,4,4,4,0,4,5,5,5,4,4,5,3,0,5,5,4,5,4,6,4,4,5,5,5,5,4,4,5,6,6,0,5,4,4,4,4,5,9,0,5,5,0,4,0,0,0,0,0,0,0,0,0,0,0,0,0,0,0,0,0,0,0,0,0,0,0,0,0,0,0,0,0,0,0,0,0,0,0,0,0,0,0,0,0,0,0,0,0,0],"split_type":[0,0,0,0,0,0,0,0,0,0,0,0,0,0,0,0,0,0,0,0,0,0,0,0,0,0,0,0,0,0,0,0,0,0,0,0,0,0,0,0,0,0,0,0,0,0,0,0,0,0,0,0,0,0,0,0,0,0,0,0,0,0,0,0,0,0,0,0,0,0,0,0,0,0,0,0,0,0,0,0,0,0,0,0,0,0,0,0,0,0,0,0,0,0,0],"sum_hessian":[1.3299E4,1.1591E4,1.708E3,8.491E3,3.1E3,9.1E1,1.617E3,5.22E3,3.271E3,2.306E3,7.94E2,3.02E2,1.315E3,4.075E3,1.145E3,6.45E2,2.626E3,1.038E3,1.268E3,5E2,2.94E2,2.33E2,6.9E1,7.84E2,5.31E2,3.774E3,3.01E2,8.02E2,3.43E2,1.56E2,4.89E2,1.117E3,1.509E3,8.79E2,1.59E2,3.06E2,9.62E2,4.78E2,2.2E1,6.9E1,2.25E2,7.5E1,1.58E2,6.8E1,1E0,3.73E2,4.11E2,7.5E1,4.56E2,2.678E3,1.096E3,6.6E1,2.35E2,3.87E2,4.15E2,1.69E2,1.74E2,7.5E1,8.1E1,2.89E2,2E2,5.67E2,5.5E2,5.92E2,9.17E2,3.43E2,5.36E2,5E0,1.54E2,3.4E1,2.72E2,4.35E2,5.27E2,3.86E2,9.2E1,6E0,1.6E1,4.9E1,2E1,1E0,2.24E2,3.2E1,4.3E1,4.6E1,1.12E2,1.4E1,5.4E1,2.55E2,1.18E2,1.86E2,2.25E2,4.1E1,3.4E1,1.11E2,3.45E2],"tree_param":{"num_deleted":"0","num_feature":"10","num_nodes":"95","size_leaf_vector":"1"}},{"base_weights":[5.460423E-4,-6.241968E-2,3.2281792E-1,4.706548E-4,-2.3132174E-1,4.6082422E-1,-6.495446E-3,3.55567E-2,-3.2831582E-1,-2.970144E-1,-1.7410403E-1,8.843057E-1,3.5004753E-1,1.9354527E-1,-1.3507648E-1,-5.4390807E-2,3.7007135E-1,-4.6657038E-1,-9.471545E-2,-3.1721514E-1,-1.4018372E-1,-2.1137492E-1,-4.8020516E-2,1.1606978E0,-5.8002777E-2,-5.156596E-3,6.697393E-1,-5.7843544E-2,3.5069588E-1,8.701798E-3,-2.0978574E-1,9.953607E-3,-3.8925508E-1,1.0705655E0,1.9521344E-1,-4.0961134E-1,-6.7206156E-1,2.5374955E-1,-4.0013206E-1,-3.9333922E-1,-2.628233E-1,8.807241E-2,-1.8446851E-1,-2.4127777E-1,-5.076954E-2,2.3864996E-1,-1.0317231E-1,1.036762E0,1.9030895E0,2.862881E-1,-3.110519E-1,9.1542757E-1,4.2119032E-1,8.5284424E-1,1.6701196E-1,-4.984862E-2,4.804284E-1,-2.1931306E-1,1.1193659E-1,-5.5136513E-3,6.8025246E-2,-3.040838E-2,-5.2350152E-2,1.5550074E-1,8.557815E-2,2.0583633E-3,8.047674E-2,-4.806137E-2,-2.117817E-2,-3.32396E-2,-6.857209E-2,3.4869894E-2,1.1018524E-2,-1.967766E-2,-5.5915218E-2,-3.317452E-2,-5.1895227E-2,2.6370856E-1,-2.7846029E-2,1.01822756E-1,-2.7069103E-3,6.843412E-3,-2.5978675E-2,-4.2255E-2,-2.2092417E-2,-4.1220494E-2,1.407469E-3,5.3340252E-2,-1.8674908E-3,-1.6480526E-2,5.241556E-3,1.6161568E-1,8.050408E-2,2.0240846E-1,1.0953843E-1,-1.3738715E-3,6.8018064E-2,-5.343107E-2,-1.563744E-2,7.873596E-2,1.4077052E-1,8.3235756E-2,1.7032823E-2,1.06701724E-1,6.316605E-2,2.8425734E-3,5.784883E-2,-1.0607607E-2,2.0799655E-2,2.7529156E-2,8.356438E-2,-2.2855649E-2,4.2247333E-2],"categories":[],"categories_nodes":[],"categories_segments":[],"categories_sizes":[],"default_left":[0,0,0,0,0,0,0,0,0,0,0,0,0,0,0,0,0,0,0,0,0,0,0,0,0,0,0,0,0,0,0,0,0,0,0,0,0,0,0,0,0,0,0,0,0,0,0,0,0,0,0,0,0,0,0,0,0,0,0,0,0,0,0,0,0,0,0,0,0,0,0,0,0,0,0,0,0,0,0,0,0,0,0,0,0,0,0,0,0,0,0,0,0,0,0,0,0,0,0,0,0,0,0,0,0,0,0,0,0,0,0,0,0],"id":7,"left_children":[1,3,5,7,9,11,13,15,17,19,21,23,25,27,29,31,33,35,37,39,41,43,45,47,-1,49,51,-1,53,55,57,59,61,63,65,67,69,71,73,75,77,79,81,83,85,87,89,91,93,95,97,99,101,103,105,107,109,111,-1,-1,-1,-1,-1,-1,-1,-1,-1,-1,-1,-1,-1,-1,-1,-1,-1,-1,-1,-1,-1,-1,-1,-1,-1,-1,-1,-1,-1,-1,-1,-1,-1,-1,-1,-1,-1,-1,-1,-1,-1,-1,-1,-1,-1,-1,-1,-1,-1,-1,-1,-1,-1,-1,-1],"loss_changes":[2.6990482E2,1.1819452E2,9.8805466E1,9.3555626E1,1.1296066E1,7.155945E1,1.6565031E1,2.2051054E2,2.5211517E1,4.4035416E0,7.5838356E0,1.2897275E2,1.3808734E2,3.0774797E1,4.2125206E0,1.244573E2,1.900132E2,5.471672E0,3.1178215E1,5.043297E0,1.6537871E0,5.9765396E0,5.874467E0,2.2593353E1,0E0,5.1529503E1,3.869641E1,0E0,1.9227247E1,3.75262E0,3.5126066E0,2.1146767E2,1.0485809E1,3.0924866E1,1.3240262E2,5.33416E0,2.5922775E-1,1.829073E0,4.934639E0,3.820137E0,3.374608E1,2.919248E0,2.6083302E0,3.7843552E0,4.622891E0,4.560791E0,2.9909227E0,2.971251E1,1.3988037E0,3.4990128E1,9.654787E0,1.9129059E1,3.286503E1,1.9788132E0,8.822423E0,1.7763186E0,8.629706E-1,1.6211624E0,0E0,0E0,0E0,0E0,0E0,0E0,0E0,0E0,0E0,0E0,0E0,0E0,0E0,0E0,0E0,0E0,0E0,0E0,0E0,0E0,0E0,0E0,0E0,0E0,0E0,0E0,0E0,0E0,0E0,0E0,0E0,0E0,0E0,0E0,0E0,0E0,0E0,0E0,0E0,0E0,0E0,0E0,0E0,0E0,0E0,0E0,0E0,0E0,0E0,0E0,0E0,0E0,0E0,0E0,0E0],"parents":[2147483647,0,0,1,1,2,2,3,3,4,4,5,5,6,6,7,7,8,8,9,9,10,10,11,11,12,12,13,13,14,14,15,15,16,16,17,17,18,18,19,19,20,20,21,21,22,22,23,23,25,25,26,26,28,28,29,29,30,30,31,31,32,32,33,33,34,34,35,35,36,36,37,37,38,38,39,39,40,40,41,41,42,42,43,43,44,44,45,45,46,46,47,47,48,48,49,49,50,50,51,51,52,52,53,53,54,54,55,55,56,56,57,57],"right_children":[2,4,6,8,10,12,14,16,18,20,22,24,26,28,30,32,34,36,38,40,42,44,46,48,-1,50,52,-1,54,56,58,60,62,64,66,68,70,72,74,76,78,80,82,84,86,88,90,92,94,96,98,100,102,104,106,108,110,112,-1,-1,-1,-1,-1,-1,-1,-1,-1,-1,-1,-1,-1,-1,-1,-1,-1,-1,-1,-1,-1,-1,-1,-1,-1,-1,-1,-1,-1,-1,-1,-1,-1,-1,-1,-1,-1,-1,-1,-1,-1,-1,-1,-1,-1,-1,-1,-1,-1,-1,-1,-1,-1,-1,-1],"split_conditions":[2.32551E5,3.9E1,2.5E1,8.8254E4,2.01E3,2.4145E5,3.39606E5,2.3233E4,1.39206E5,2.0034E3,1.5824E3,1.302615E6,1.066107E6,4.236E4,9.538E2,1.1E4,2.0045E4,1.71476E5,1.52905E5,2.581E3,2.0498E3,2.3E1,1.7984E3,6.83642E5,-5.8002777E-2,4.01329E5,9.875E2,-5.7843544E-2,1.79295E5,2.016E3,4.8E1,8.865E3,2.3757E4,1.1E4,1.05E5,9.99E4,4.1502E4,1.2E5,2.15619E5,3.8724E2,1.935634E5,1.999E3,1.19E2,2E0,8E1,8.62E2,4.7E1,1.1517E5,7.72119E4,5.85616E5,6.12701E5,2.016E3,9E0,1.414E5,4.32637E5,1.7E1,8.148E2,3E0,1.1193659E-1,-5.5136513E-3,6.8025246E-2,-3.040838E-2,-5.2350152E-2,1.5550074E-1,8.557815E-2,2.0583633E-3,8.047674E-2,-4.806137E-2,-2.117817E-2,-3.32396E-2,-6.857209E-2,3.4869894E-2,1.1018524E-2,-1.967766E-2,-5.5915218E-2,-3.317452E-2,-5.1895227E-2,2.6370856E-1,-2.7846029E-2,1.01822756E-1,-2.7069103E-3,6.843412E-3,-2.5978675E-2,-4.2255E-2,-2.2092417E-2,-4.1220494E-2,1.407469E-3,5.3340252E-2,-1.8674908E-3,-1.6480526E-2,5.241556E-3,1.6161568E-1,8.050408E-2,2.0240846E-1,1.0953843E-1,-1.3738715E-3,6.8018064E-2,-5.343107E-2,-1.563744E-2,7.873596E-2,1.4077052E-1,8.3235756E-2,1.7032823E-2,1.06701724E-1,6.316605E-2,2.8425734E-3,5.784883E-2,-1.0607607E-2,2.0799655E-2,2.7529156E-2,8.356438E-2,-2.2855649E-2,4.2247333E-2],"split_indices":[5,0,0,4,1,4,4,5,5,6,6,5,5,4,9,4,4,4,4,5,9,3,9,5,0,4,6,0,4,1,0,5,4,4,5,5,5,4,4,8,7,1,4,3,5,4,0,4,8,5,5,1,3,4,5,3,9,2,0,0,0,0,0,0,0,0,0,0,0,0,0,0,0,0,0,0,0,0,0,0,0,0,0,0,0,0,0,0,0,0,0,0,0,0,0,0,0,0,0,0,0,0,0,0,0,0,0,0,0,0,0,0,0],"split_type":[0,0,0,0,0,0,0,0,0,0,0,0,0,0,0,0,0,0,0,0,0,0,0,0,0,0,0,0,0,0,0,0,0,0,0,0,0,0,0,0,0,0,0,0,0,0,0,0,0,0,0,0,0,0,0,0,0,0,0,0,0,0,0,0,0,0,0,0,0,0,0,0,0,0,0,0,0,0,0,0,0,0,0,0,0,0,0,0,0,0,0,0,0,0,0,0,0,0,0,0,0,0,0,0,0,0,0,0,0,0,0,0,0],"sum_hessian":[1.3299E4,1.1126E4,2.173E3,8.108E3,3.018E3,1.531E3,6.42E2,7.327E3,7.81E2,1.403E3,1.615E3,3.16E2,1.215E3,2.51E2,3.91E2,5.775E3,1.552E3,4.9E2,2.91E2,1.242E3,1.61E2,1.246E3,3.69E2,2.66E2,5E1,5.76E2,6.39E2,4.2E1,2.09E2,1.34E2,2.57E2,4.845E3,9.3E2,3.09E2,1.243E3,3.86E2,1.04E2,1.36E2,1.55E2,5.15E2,7.27E2,2.6E1,1.35E2,1.05E3,1.96E2,5.9E1,3.1E2,2.3E2,3.6E1,2.95E2,2.81E2,3.2E2,3.19E2,5.5E1,1.54E2,1.2E2,1.4E1,2.56E2,1E0,4.417E3,4.28E2,5.71E2,3.59E2,9.3E1,2.16E2,9.67E2,2.76E2,2.83E2,1.03E2,5E0,9.9E1,8.1E1,5.5E1,6.9E1,8.6E1,3.48E2,1.67E2,3E0,7.24E2,2E0,2.4E1,3.1E1,1.04E2,1.04E2,9.46E2,2.9E1,1.67E2,2.7E1,3.2E1,2.22E2,8.8E1,6.4E1,1.66E2,3E1,6E0,1.68E2,1.27E2,1.14E2,1.67E2,2.56E2,6.4E1,1.2E2,1.99E2,2.6E1,2.9E1,1.16E2,3.8E1,9.9E1,2.1E1,1E1,4E0,2.53E2,3E0],"tree_param":{"num_deleted":"0","num_feature":"10","num_nodes":"113","size_leaf_vector":"1"}},{"base_weights":[6.048373E-4,-6.4233735E-2,2.5624833E-1,-3.046977E-2,-3.687183E-1,3.7919328E-1,7.865866E-3,-7.481158E-2,3.9851552E-1,-3.391005E-1,-5.6231004E-1,8.129871E-2,4.7872564E-1,2.0832422E-1,-1.4899549E-1,-1.9843752E-2,-2.440037E-1,9.69061E-1,8.69795E-2,-4.1848925E-1,-2.0898637E-1,-6.546935E-2,-4.56223E-1,2.8133577E-1,-4.3282244E-1,7.255388E-1,3.5560918E-1,2.9744682E-1,-5.219371E-2,-2.936711E-1,-5.02726E-2,-8.6352125E-2,7.7121216E-1,-3.62377E-1,-7.7361315E-2,6.307566E-1,1.2380334E0,-4.953137E-2,3.6744672E-1,-4.7994456E-1,-3.467201E-1,-8.3452694E-2,-2.6518357E-1,-8.617762E-3,-4.6045985E-2,-2.0593132E-1,6.4010596E-1,-3.3660728E-1,-5.841639E-1,1.139758E0,3.7455323E-1,2.7052376E-1,9.7863984E-1,1.0426964E0,1.9243652E-1,-3.4342343E-1,-1.875556E-1,1.4590079E-2,-3.815024E-1,-2.1720107E-3,-2.5577977E-2,1.2527518E-1,5.046014E-2,-4.7437113E-2,-2.7627578E-2,1.5849046E-2,-2.7570872E-2,1.3880618E-1,2.6511956E-2,1.4842367E-1,9.2006184E-2,9.646456E-3,-1.4582726E-2,6.6964485E-2,2.0494655E-2,-5.5999905E-2,-4.5045253E-2,-3.1084498E-2,-4.296631E-2,-1.2659036E-2,1.0539697E-2,-3.3424567E-2,-1.8854244E-2,-2.7803032E-2,1.3396126E-2,1.1008181E-1,3.934415E-2,-6.6630125E-2,-2.9072044E-2,-6.1399627E-2,-3.2171786E-2,1.2437791E-1,-2.6076017E-2,1.1860988E-1,2.7649507E-2,5.512764E-2,5.294761E-3,-4.422368E-2,1.16085604E-1,1.1903208E-1,4.365037E-2,4.80165E-3,4.9234997E-2,-2.538676E-2,-3.6829885E-2,1.602511E-2,-2.0072274E-2,-9.632647E-5,1.3006543E-1,-2.9716566E-2,-4.7980063E-2],"categories":[],"categories_nodes":[],"categories_segments":[],"categories_sizes":[],"default_left":[0,0,0,0,0,0,0,0,0,0,0,0,0,0,0,0,0,0,0,0,0,0,0,0,0,0,0,0,0,0,0,0,0,0,0,0,0,0,0,0,0,0,0,0,0,0,0,0,0,0,0,0,0,0,0,0,0,0,0,0,0,0,0,0,0,0,0,0,0,0,0,0,0,0,0,0,0,0,0,0,0,0,0,0,0,0,0,0,0,0,0,0,0,0,0,0,0,0,0,0,0,0,0,0,0,0,0,0,0,0,0],"id":8,"left_children":[1,3,5,7,9,11,13,15,17,19,21,23,25,27,29,31,33,35,37,39,41,-1,43,45,47,49,51,53,-1,55,57,59,61,63,65,67,69,71,73,75,77,79,81,-1,-1,83,85,87,89,91,93,95,97,99,101,103,105,107,109,-1,-1,-1,-1,-1,-1,-1,-1,-1,-1,-1,-1,-1,-1,-1,-1,-1,-1,-1,-1,-1,-1,-1,-1,-1,-1,-1,-1,-1,-1,-1,-1,-1,-1,-1,-1,-1,-1,-1,-1,-1,-1,-1,-1,-1,-1,-1,-1,-1,-1,-1,-1],"loss_changes":[2.2047137E2,1.09065994E2,8.2173065E1,1.8172778E2,5.881378E0,5.333136E1,2.807924E1,8.0515625E1,1.5899788E2,9.426102E0,1.0636063E0,4.6606937E1,4.0733734E1,2.5667702E1,7.140917E0,3.4393762E2,4.185028E1,2.7973389E1,2.2224556E1,2.3520355E0,2.4540482E0,0E0,6.693077E-2,5.7122124E1,1.6526585E0,6.470555E1,4.7551025E1,2.718995E1,0E0,1.0073242E0,6.429417E0,6.6025665E1,6.445831E1,1.1835693E1,4.1350956E1,3.895163E1,1.2334412E1,5.5110617E0,9.193136E0,4.6784973E-1,6.60923E-1,9.0946096E-1,1.217886E0,0E0,0E0,3.4435673E0,2.0931458E1,1.0165815E0,1.7827606E-1,3.0189423E1,1.9089249E1,4.8533443E1,2.8475304E1,3.3284416E0,1.3316919E1,2.1170235E-1,3.390007E-1,5.021905E0,2.6363707E-1,0E0,0E0,0E0,0E0,0E0,0E0,0E0,0E0,0E0,0E0,0E0,0E0,0E0,0E0,0E0,0E0,0E0,0E0,0E0,0E0,0E0,0E0,0E0,0E0,0E0,0E0,0E0,0E0,0E0,0E0,0E0,0E0,0E0,0E0,0E0,0E0,0E0,0E0,0E0,0E0,0E0,0E0,0E0,0E0,0E0,0E0,0E0,0E0,0E0,0E0,0E0,0E0],"parents":[2147483647,0,0,1,1,2,2,3,3,4,4,5,5,6,6,7,7,8,8,9,9,10,10,11,11,12,12,13,13,14,14,15,15,16,16,17,17,18,18,19,19,20,20,22,22,23,23,24,24,25,25,26,26,27,27,29,29,30,30,31,31,32,32,33,33,34,34,35,35,36,36,37,37,38,38,39,39,40,40,41,41,42,42,45,45,46,46,47,47,48,48,49,49,50,50,51,51,52,52,53,53,54,54,55,55,56,56,57,57,58,58],"right_children":[2,4,6,8,10,12,14,16,18,20,22,24,26,28,30,32,34,36,38,40,42,-1,44,46,48,50,52,54,-1,56,58,60,62,64,66,68,70,72,74,76,78,80,82,-1,-1,84,86,88,90,92,94,96,98,100,102,104,106,108,110,-1,-1,-1,-1,-1,-1,-1,-1,-1,-1,-1,-1,-1,-1,-1,-1,-1,-1,-1,-1,-1,-1,-1,-1,-1,-1,-1,-1,-1,-1,-1,-1,-1,-1,-1,-1,-1,-1,-1,-1,-1,-1,-1,-1,-1,-1,-1,-1,-1,-1,-1,-1],"split_conditions":[1.39206E5,7.0504E4,2.5E1,3.58E4,2.15619E5,9E0,2.97887E5,9.523E3,3.2028E4,7.9474E4,2.7E1,6E0,9E0,7.89623E5,4.07657E5,8.532E3,1.7434E4,4.8132E4,8.1726E4,4.8132E4,9.4705E4,-6.546935E-2,2.3902E4,4E0,7.171E5,1.3241E3,9.188E6,9.4705E4,-5.219371E-2,2.96355E5,6.409591E5,2.852E3,5.379E3,8E3,2.6118E4,1.5567E4,2.0014E3,4.6413E4,4.7611E4,2.384E4,1.347E5,3.8E1,3.3E1,-8.617762E-3,-4.6045985E-2,2E0,2.97887E5,2E0,1.4E1,2.3E1,1E1,3.12471E5,4.963E3,3E0,2.96355E5,3.566E5,4.997958E4,4.8E1,1.4183E3,-2.1720107E-3,-2.5577977E-2,1.2527518E-1,5.046014E-2,-4.7437113E-2,-2.7627578E-2,1.5849046E-2,-2.7570872E-2,1.3880618E-1,2.6511956E-2,1.4842367E-1,9.2006184E-2,9.646456E-3,-1.4582726E-2,6.6964485E-2,2.0494655E-2,-5.5999905E-2,-4.5045253E-2,-3.1084498E-2,-4.296631E-2,-1.2659036E-2,1.0539697E-2,-3.3424567E-2,-1.8854244E-2,-2.7803032E-2,1.3396126E-2,1.1008181E-1,3.934415E-2,-6.6630125E-2,-2.9072044E-2,-6.1399627E-2,-3.2171786E-2,1.2437791E-1,-2.6076017E-2,1.1860988E-1,2.7649507E-2,5.512764E-2,5.294761E-3,-4.422368E-2,1.16085604E-1,1.1903208E-1,4.365037E-2,4.80165E-3,4.9234997E-2,-2.538676E-2,-3.6829885E-2,1.602511E-2,-2.0072274E-2,-9.632647E-5,1.3006543E-1,-2.9716566E-2,-4.7980063E-2],"split_indices":[5,4,0,5,4,0,4,4,4,5,0,0,3,5,5,5,5,5,5,5,4,0,8,0,4,6,5,4,0,5,8,4,4,5,4,4,9,4,4,5,4,0,0,0,0,0,4,3,3,0,0,4,4,2,5,4,8,0,9,0,0,0,0,0,0,0,0,0,0,0,0,0,0,0,0,0,0,0,0,0,0,0,0,0,0,0,0,0,0,0,0,0,0,0,0,0,0,0,0,0,0,0,0,0,0,0,0,0,0,0,0],"split_type":[0,0,0,0,0,0,0,0,0,0,0,0,0,0,0,0,0,0,0,0,0,0,0,0,0,0,0,0,0,0,0,0,0,0,0,0,0,0,0,0,0,0,0,0,0,0,0,0,0,0,0,0,0,0,0,0,0,0,0,0,0,0,0,0,0,0,0,0,0,0,0,0,0,0,0,0,0,0,0,0,0,0,0,0,0,0,0,0,0,0,0,0,0,0,0,0,0,0,0,0,0,0,0,0,0,0,0,0,0,0,0],"sum_hessian":[1.3299E4,1.0609E4,2.69E3,9.551E3,1.058E3,1.799E3,8.91E2,8.657E3,8.94E2,9.2E2,1.38E2,4.51E2,1.348E3,3.91E2,5E2,6.535E3,2.122E3,3.15E2,5.79E2,5.7E2,3.5E2,7.1E1,6.7E1,3.25E2,1.26E2,4.47E2,9.01E2,3.49E2,4.2E1,2.02E2,2.98E2,6.029E3,5.06E2,1.24E3,8.82E2,1.41E2,1.74E2,3.9E2,1.89E2,3.04E2,2.66E2,1.09E2,2.41E2,1E0,6.6E1,1.38E2,1.87E2,7.9E1,4.7E1,2.04E2,2.43E2,7.94E2,1.07E2,4.2E1,3.07E2,1.36E2,6.6E1,2.5E2,4.8E1,4.365E3,1.664E3,1.79E2,3.27E2,5.37E2,7.03E2,4.03E2,4.79E2,4.5E1,9.6E1,9.6E1,7.8E1,1.55E2,2.35E2,6.5E1,1.24E2,7.7E1,2.27E2,1.89E2,7.7E1,8.9E1,2E1,1.25E2,1.16E2,1.14E2,2.4E1,6.4E1,1.23E2,8E0,7.1E1,4.1E1,6E0,1.9E2,1.4E1,2.5E1,2.18E2,3.46E2,4.48E2,1.2E1,9.5E1,3.3E1,9E0,2.08E2,9.9E1,3.2E1,1.04E2,2E0,6.4E1,2.48E2,2E0,2.8E1,2E1],"tree_param":{"num_deleted":"0","num_feature":"10","num_nodes":"111","size_leaf_vector":"1"}},{"base_weights":[5.9495034E-4,-4.520157E-2,3.0090007E-1,8.229353E-3,-1.9120613E-1,-4.9117472E-2,3.4438118E-1,-1.3084362E-1,6.566156E-2,-2.4348165E-1,-1.3641855E-1,1.1625313E0,2.727819E-1,4.247695E-2,-4.1690534E-1,1.6949589E0,3.9358024E-2,-3.067145E-1,-1.9578765E-1,-2.0756054E-1,-8.8997014E-2,8.3778703E-1,1.5611418E0,1.9866365E-1,8.632659E-1,-6.531115E-2,6.855992E-1,-6.4925665E-1,-3.2361844E-1,2.590604E0,1.4665413E0,7.4951924E-2,-2.9869556E-1,-2.6962018E-1,-4.8227274E-1,2.5896943E-1,-2.141604E-1,1.5263212E-1,-2.1511957E-1,-2.2547738E-1,-3.2186355E-2,1.3460019E-1,6.1926854E-1,6.540107E-2,1.581497E-1,5.780427E-1,1.1357555E-1,1.1936728E0,4.2442948E-1,1.4097527E-2,-3.9176986E-2,2.0625876E-1,4.7514193E-2,-8.117429E-2,-5.8708437E-2,-6.6949576E-3,-4.744048E-2,7.633017E-2,2.6531923E-1,1.15169525E-1,1.9067372E-1,2.7601286E-3,5.6081325E-2,-4.7475956E-2,-1.6167862E-2,-5.309182E-2,-2.4529725E-2,-1.9693447E-2,-4.932527E-2,3.8393915E-3,-2.5690481E-2,1.8786138E-3,8.7939195E-2,-2.2814615E-2,-3.4490433E-3,-1.5622404E-2,-5.46318E-2,2.3957889E-1,-9.003603E-3,6.963256E-2,2.4773799E-2,3.2600995E-2,1.2214696E-1,-1.347574E-2,2.8829545E-2,1.3571472E-1,2.812615E-2,2.0773478E-2,8.0197066E-2],"categories":[],"categories_nodes":[],"categories_segments":[],"categories_sizes":[],"default_left":[0,0,0,0,0,0,0,0,0,0,0,0,0,0,0,0,0,0,0,0,0,0,0,0,0,0,0,0,0,0,0,0,0,0,0,0,0,0,0,0,0,0,0,0,0,0,0,0,0,0,0,0,0,0,0,0,0,0,0,0,0,0,0,0,0,0,0,0,0,0,0,0,0,0,0,0,0,0,0,0,0,0,0,0,0,0,0,0,0],"id":9,"left_children":[1,3,5,7,9,-1,11,13,15,17,19,21,23,25,27,29,31,33,35,37,39,41,43,45,47,49,51,53,55,57,59,61,63,65,67,-1,69,71,73,75,77,-1,79,-1,-1,81,83,85,87,-1,-1,-1,-1,-1,-1,-1,-1,-1,-1,-1,-1,-1,-1,-1,-1,-1,-1,-1,-1,-1,-1,-1,-1,-1,-1,-1,-1,-1,-1,-1,-1,-1,-1,-1,-1,-1,-1,-1,-1],"loss_changes":[1.8292754E2,9.003473E1,6.0784073E1,6.750101E1,8.822426E0,0E0,9.745114E1,1.2248126E2,2.562567E2,4.7079773E0,5.082508E0,1.6037933E1,6.705253E1,1.0672968E2,1.9991287E1,1.5635986E1,7.085858E1,4.2852592E0,4.681859E1,1.6773491E0,7.0407104E0,7.606594E0,5.5114746E-2,4.402971E1,2.428743E1,8.888196E1,6.306517E1,2.2106094E0,2.5782585E1,3.3439636E-2,8.614365E0,1.2253666E2,1.3456669E1,3.441574E0,2.6942253E-1,0E0,9.714825E0,1.24804E0,1.3850956E0,5.8472004E0,9.0529915E1,0E0,1.402092E0,0E0,0E0,4.0142952E1,4.8504036E1,1.4086426E1,5.969239E0,0E0,0E0,0E0,0E0,0E0,0E0,0E0,0E0,0E0,0E0,0E0,0E0,0E0,0E0,0E0,0E0,0E0,0E0,0E0,0E0,0E0,0E0,0E0,0E0,0E0,0E0,0E0,0E0,0E0,0E0,0E0,0E0,0E0,0E0,0E0,0E0,0E0,0E0,0E0,0E0],"parents":[2147483647,0,0,1,1,2,2,3,3,4,4,6,6,7,7,8,8,9,9,10,10,11,11,12,12,13,13,14,14,15,15,16,16,17,17,18,18,19,19,20,20,21,21,22,22,23,23,24,24,25,25,26,26,27,27,28,28,29,29,30,30,31,31,32,32,33,33,34,34,36,36,37,37,38,38,39,39,40,40,42,42,45,45,46,46,47,47,48,48],"right_children":[2,4,6,8,10,-1,12,14,16,18,20,22,24,26,28,30,32,34,36,38,40,42,44,46,48,50,52,54,56,58,60,62,64,66,68,-1,70,72,74,76,78,-1,80,-1,-1,82,84,86,88,-1,-1,-1,-1,-1,-1,-1,-1,-1,-1,-1,-1,-1,-1,-1,-1,-1,-1,-1,-1,-1,-1,-1,-1,-1,-1,-1,-1,-1,-1,-1,-1,-1,-1,-1,-1,-1,-1,-1,-1],"split_conditions":[3.6194E5,3.9E1,4.236E4,1.217E3,2.011E3,-4.9117472E-2,1.97782E5,5.15E2,8.96E2,2.581E3,4.4E1,4.63374E5,7.046043E6,3.42E2,5.07E2,5.963712E4,1.47623E5,3.726676E5,1.935634E5,6E0,9.6E2,1.29125E5,1.999E3,3.12471E5,3.992412E6,1.409394E4,1.91E2,2.72E2,9.84E2,1.267E3,1.879E3,1.18472E5,1.96192E5,3.93E2,2.773E3,2.5896943E-1,7.365E3,6E0,2.4126E3,3.549E2,8.62E2,1.3460019E-1,2.7110824E7,6.540107E-2,1.581497E-1,6.83642E5,9.81351E5,1.2056E3,1.6529971E7,1.4097527E-2,-3.9176986E-2,2.0625876E-1,4.7514193E-2,-8.117429E-2,-5.8708437E-2,-6.6949576E-3,-4.744048E-2,7.633017E-2,2.6531923E-1,1.15169525E-1,1.9067372E-1,2.7601286E-3,5.6081325E-2,-4.7475956E-2,-1.6167862E-2,-5.309182E-2,-2.4529725E-2,-1.9693447E-2,-4.932527E-2,3.8393915E-3,-2.5690481E-2,1.8786138E-3,8.7939195E-2,-2.2814615E-2,-3.4490433E-3,-1.5622404E-2,-5.46318E-2,2.3957889E-1,-9.003603E-3,6.963256E-2,2.4773799E-2,3.2600995E-2,1.2214696E-1,-1.347574E-2,2.8829545E-2,1.3571472E-1,2.812615E-2,2.0773478E-2,8.0197066E-2],"split_indices":[5,0,4,5,1,0,4,4,4,5,0,5,5,5,5,7,4,7,7,4,5,4,1,4,4,7,4,5,4,5,5,5,5,9,4,0,4,5,6,8,4,0,7,0,0,5,5,6,5,0,0,0,0,0,0,0,0,0,0,0,0,0,0,0,0,0,0,0,0,0,0,0,0,0,0,0,0,0,0,0,0,0,0,0,0,0,0,0,0],"split_type":[0,0,0,0,0,0,0,0,0,0,0,0,0,0,0,0,0,0,0,0,0,0,0,0,0,0,0,0,0,0,0,0,0,0,0,0,0,0,0,0,0,0,0,0,0,0,0,0,0,0,0,0,0,0,0,0,0,0,0,0,0,0,0,0,0,0,0,0,0,0,0,0,0,0,0,0,0,0,0,0,0,0,0,0,0,0,0,0,0],"sum_hessian":[1.3299E4,1.154E4,1.759E3,8.449E3,3.091E3,9.1E1,1.668E3,2.469E3,5.98E3,1.58E3,1.511E3,1.33E2,1.535E3,1.538E3,9.31E2,9.4E1,5.886E3,6.77E2,9.03E2,6.03E2,9.08E2,7.5E1,5.8E1,1.365E3,1.7E2,1.318E3,2.2E2,2.65E2,6.66E2,1.7E1,7.7E1,5.326E3,5.6E2,5.61E2,1.16E2,5E0,8.98E2,1.2E1,5.91E2,2.66E2,6.42E2,2.1E1,5.4E1,2E0,5.6E1,2.49E2,1.116E3,9.6E1,7.4E1,8.08E2,5.1E2,2.8E1,1.92E2,7E1,1.95E2,2.47E2,4.19E2,1E0,1.6E1,4.7E1,3E1,4.854E3,4.72E2,2.44E2,3.16E2,4.6E1,5.15E2,5E0,1.11E2,1.3E2,7.68E2,1.1E1,1E0,5.51E2,4E1,2.2E2,4.6E1,1.4E1,6.28E2,4.4E1,1E1,1.8E2,6.9E1,4.61E2,6.55E2,8.1E1,1.5E1,4.8E1,2.6E1],"tree_param":{"num_deleted":"0","num_feature":"10","num_nodes":"89","size_leaf_vector":"1"}},{"base_weights":[6.730428E-4,-4.714573E-2,2.3858511E-1,-1.668252E-2,-2.7579418E-1,3.4335542E-1,-6.812566E-3,-6.046387E-2,3.8768208E-1,-3.6954483E-1,-1.7207243E-1,6.970361E-1,2.5928736E-1,1.5768686E-1,-1.1632512E-1,-1.813401E-2,-2.4480751E-1,9.6985006E-1,1.6849717E-1,-4.3913424E-1,-3.198091E-1,-4.257755E-2,-4.0567368E-1,9.337322E-1,-4.722652E-1,-3.8847625E-2,4.874254E-1,-4.2298194E-2,2.6795828E-1,-8.084385E-2,-3.6956108E-1,-6.857325E-2,6.466831E-1,-3.934655E-1,-1.3801429E-1,7.495082E-1,1.260857E0,3.181141E-2,6.649101E-1,-4.863537E-1,-3.7593576E-1,-4.137221E-2,-2.7837905E-1,-1.5949272E-1,6.72008E-2,-5.160816E-1,-3.0844635E-1,7.920902E-1,1.4189407E0,-1.7001244E-1,-4.811324E-2,1.7229375E-1,-3.293416E-1,1.036521E0,4.18562E-1,6.711443E-1,1.1048173E-1,-1.84383E-1,8.180326E-2,-4.5616663E-1,-2.8209853E-1,-1.4515197E-3,-2.0969585E-2,1.1773085E-1,4.111899E-2,-4.750846E-2,-3.291335E-2,3.6713951E-3,-2.4861908E-2,1.1933526E-1,3.9083667E-2,1.5538965E-1,8.98487E-2,2.269023E-2,-6.2383683E-3,4.236613E-2,8.210353E-2,-4.4949107E-2,-5.689313E-2,-3.7802447E-2,-5.846971E-3,-2.547628E-2,-3.7793633E-2,3.1329244E-2,-1.7365789E-2,2.6246741E-2,-6.8285884E-3,-3.5976127E-2,-5.675601E-2,3.7421763E-3,-3.1166727E-2,1.2569156E-1,5.811959E-2,8.0799155E-2,1.477261E-1,-2.4547763E-2,-9.541035E-4,-7.389661E-3,4.7409244E-2,-5.0659288E-2,-2.2267757E-2,1.744964E-1,8.570876E-2,1.5523895E-2,6.409826E-2,8.4351964E-2,4.888783E-2,3.636424E-4,4.5010176E-2,-1.5074739E-2,-3.379723E-2,5.2868016E-2,-1.6913628E-3,-4.801846E-2,3.6114275E-3,-1.959272E-2,-3.8962707E-2],"categories":[],"categories_nodes":[],"categories_segments":[],"categories_sizes":[],"default_left":[0,0,0,0,0,0,0,0,0,0,0,0,0,0,0,0,0,0,0,0,0,0,0,0,0,0,0,0,0,0,0,0,0,0,0,0,0,0,0,0,0,0,0,0,0,0,0,0,0,0,0,0,0,0,0,0,0,0,0,0,0,0,0,0,0,0,0,0,0,0,0,0,0,0,0,0,0,0,0,0,0,0,0,0,0,0,0,0,0,0,0,0,0,0,0,0,0,0,0,0,0,0,0,0,0,0,0,0,0,0,0,0,0,0,0,0,0],"id":10,"left_children":[1,3,5,7,9,11,13,15,17,19,21,23,25,27,29,31,33,35,37,39,41,43,45,47,49,51,53,-1,55,57,59,61,63,65,67,69,71,73,75,77,79,-1,81,83,85,87,89,91,93,95,-1,97,99,101,103,105,107,109,111,113,115,-1,-1,-1,-1,-1,-1,-1,-1,-1,-1,-1,-1,-1,-1,-1,-1,-1,-1,-1,-1,-1,-1,-1,-1,-1,-1,-1,-1,-1,-1,-1,-1,-1,-1,-1,-1,-1,-1,-1,-1,-1,-1,-1,-1,-1,-1,-1,-1,-1,-1,-1,-1,-1,-1,-1,-1],"loss_changes":[1.5132088E2,7.713683E1,5.7233665E1,1.7305872E2,1.2597031E1,4.620314E1,1.2034182E1,6.882015E1,1.216969E2,2.2234879E0,1.873783E1,8.31949E1,8.585504E1,1.7209667E1,3.5731611E0,2.4060916E2,2.6092918E1,1.5790558E1,4.713639E1,6.5870667E-1,1.4489365E0,5.1446195E0,2.2131767E0,1.5988831E1,5.4888725E-2,3.3668484E1,2.6602142E1,0E0,1.421163E1,5.9597244E0,2.4247837E-1,5.0873512E1,6.2744995E1,3.456131E0,1.8561876E1,2.3571938E1,1.0390808E1,1.004778E1,5.3019104E0,2.2522736E-1,6.0783386E-2,0E0,5.6674576E-1,1.3536401E0,5.4943204E0,6.166229E-1,1.4534473E-1,1.8385132E1,7.6608276E-1,3.3987902E-2,0E0,2.366241E1,4.2545567E0,8.546753E0,3.720861E1,1.5669651E0,5.913112E0,1.0649228E0,6.096715E0,2.8928375E-1,1.7384028E-1,0E0,0E0,0E0,0E0,0E0,0E0,0E0,0E0,0E0,0E0,0E0,0E0,0E0,0E0,0E0,0E0,0E0,0E0,0E0,0E0,0E0,0E0,0E0,0E0,0E0,0E0,0E0,0E0,0E0,0E0,0E0,0E0,0E0,0E0,0E0,0E0,0E0,0E0,0E0,0E0,0E0,0E0,0E0,0E0,0E0,0E0,0E0,0E0,0E0,0E0,0E0,0E0,0E0,0E0,0E0,0E0],"parents":[2147483647,0,0,1,1,2,2,3,3,4,4,5,5,6,6,7,7,8,8,9,9,10,10,11,11,12,12,13,13,14,14,15,15,16,16,17,17,18,18,19,19,20,20,21,21,22,22,23,23,24,24,25,25,26,26,28,28,29,29,30,30,31,31,32,32,33,33,34,34,35,35,36,36,37,37,38,38,39,39,40,40,42,42,43,43,44,44,45,45,46,46,47,47,48,48,49,49,51,51,52,52,53,53,54,54,55,55,56,56,57,57,58,58,59,59,60,60],"right_children":[2,4,6,8,10,12,14,16,18,20,22,24,26,28,30,32,34,36,38,40,42,44,46,48,50,52,54,-1,56,58,60,62,64,66,68,70,72,74,76,78,80,-1,82,84,86,88,90,92,94,96,-1,98,100,102,104,106,108,110,112,114,116,-1,-1,-1,-1,-1,-1,-1,-1,-1,-1,-1,-1,-1,-1,-1,-1,-1,-1,-1,-1,-1,-1,-1,-1,-1,-1,-1,-1,-1,-1,-1,-1,-1,-1,-1,-1,-1,-1,-1,-1,-1,-1,-1,-1,-1,-1,-1,-1,-1,-1,-1,-1,-1,-1,-1,-1],"split_conditions":[2.18934E5,7.9381E4,2.5E1,4.0153E4,9.99E4,2.15619E5,3.39606E5,1.4052E4,3.2028E4,2.9E1,2.15619E5,1.302615E6,9.12047E5,4.236E4,6.409591E5,1.25E4,1.6419E4,6.5893E4,1.18472E5,1.1083E3,4.1502E4,1.45368E5,3.2E1,5.21E5,3.5E-1,4.01329E5,5.315E5,-4.2298194E-2,1.79295E5,8.46657E5,2.01E3,3.755E3,6.732E3,8.865E3,2.7096E4,1.7761E4,2.6118E4,4.6413E4,1.39206E5,1.71476E5,2.5E1,-4.137221E-2,1.79295E5,4.739E2,1.2E5,3E0,2.3902E4,1.07731E5,2.004E3,2.1E1,-4.811324E-2,5.49109E5,5.21E5,2.88129E5,3.402713E6,1.414E5,4.32637E5,7.171E5,7.171E5,3.8E1,1.4183E3,-1.4515197E-3,-2.0969585E-2,1.1773085E-1,4.111899E-2,-4.750846E-2,-3.291335E-2,3.6713951E-3,-2.4861908E-2,1.1933526E-1,3.9083667E-2,1.5538965E-1,8.98487E-2,2.269023E-2,-6.2383683E-3,4.236613E-2,8.210353E-2,-4.4949107E-2,-5.689313E-2,-3.7802447E-2,-5.846971E-3,-2.547628E-2,-3.7793633E-2,3.1329244E-2,-1.7365789E-2,2.6246741E-2,-6.8285884E-3,-3.5976127E-2,-5.675601E-2,3.7421763E-3,-3.1166727E-2,1.2569156E-1,5.811959E-2,8.0799155E-2,1.477261E-1,-2.4547763E-2,-9.541035E-4,-7.389661E-3,4.7409244E-2,-5.0659288E-2,-2.2267757E-2,1.744964E-1,8.570876E-2,1.5523895E-2,6.409826E-2,8.4351964E-2,4.888783E-2,3.636424E-4,4.5010176E-2,-1.5074739E-2,-3.379723E-2,5.2868016E-2,-1.6913628E-3,-4.801846E-2,3.6114275E-3,-1.959272E-2,-3.8962707E-2],"split_indices":[5,4,0,5,5,4,4,4,4,0,4,5,5,4,8,5,5,5,5,9,5,5,0,5,8,4,4,0,4,5,1,4,4,5,4,4,4,4,5,4,0,0,4,6,4,0,8,4,1,0,0,5,5,4,5,4,5,4,4,0,9,0,0,0,0,0,0,0,0,0,0,0,0,0,0,0,0,0,0,0,0,0,0,0,0,0,0,0,0,0,0,0,0,0,0,0,0,0,0,0,0,0,0,0,0,0,0,0,0,0,0,0,0,0,0,0,0],"split_type":[0,0,0,0,0,0,0,0,0,0,0,0,0,0,0,0,0,0,0,0,0,0,0,0,0,0,0,0,0,0,0,0,0,0,0,0,0,0,0,0,0,0,0,0,0,0,0,0,0,0,0,0,0,0,0,0,0,0,0,0,0,0,0,0,0,0,0,0,0,0,0,0,0,0,0,0,0,0,0,0,0,0,0,0,0,0,0,0,0,0,0,0,0,0,0,0,0,0,0,0,0,0,0,0,0,0,0,0,0,0,0,0,0,0,0,0,0],"sum_hessian":[1.3299E4,1.1074E4,2.225E3,9.773E3,1.301E3,1.559E3,6.66E2,8.819E3,9.54E2,6.82E2,6.19E2,2.98E2,1.261E3,2.66E2,4E2,7.173E3,1.646E3,2.6E2,6.94E2,2.81E2,4.01E2,3.99E2,2.2E2,2.48E2,5E1,5.47E2,7.14E2,4.2E1,2.24E2,3.52E2,4.8E1,6.668E3,5.05E2,6.87E2,9.59E2,1.5E2,1.1E2,5.45E2,1.49E2,1.57E2,1.24E2,1.2E2,2.81E2,1.93E2,2.06E2,1.01E2,1.19E2,1.94E2,5.4E1,2E0,4.8E1,3.17E2,2.3E2,7.8E1,6.36E2,6.2E1,1.62E2,2.15E2,1.37E2,2.2E1,2.6E1,4.822E3,1.846E3,1.54E2,3.51E2,3E2,3.87E2,3.72E2,5.87E2,6.6E1,8.4E1,5.9E1,5.1E1,1.77E2,3.68E2,6E1,8.9E1,1.13E2,4.4E1,1.23E2,1E0,2.3E2,5.1E1,5E0,1.88E2,8.4E1,1.22E2,2.7E1,7.4E1,1E0,1.18E2,5.9E1,1.35E2,6E0,4.8E1,1E0,1E0,1.75E2,1.42E2,8.5E1,1.45E2,1.4E1,6.4E1,2.92E2,3.44E2,3E1,3.2E1,1.24E2,3.8E1,1.78E2,3.7E1,2.4E1,1.13E2,2.1E1,1E0,1.6E1,1E1],"tree_param":{"num_deleted":"0","num_feature":"10","num_nodes":"117","size_leaf_vector":"1"}},{"base_weights":[6.751844E-4,7.435961E-2,-1.2557454E-1,-3.9154395E-2,1.9585751E-1,-3.635214E-1,-1.10369086E-1,5.019339E-2,-2.5041673E-1,5.4830265E-1,1.332074E-1,-6.2527686E-1,-3.124487E-1,-5.381709E-3,-1.5826684E-1,-8.17196E-2,4.1011444E-1,-4.2436895E-1,-1.7793225E-1,6.373091E-1,-4.0248778E-1,-1.4377633E-1,2.5135186E-1,-6.717389E-2,-3.5446602E-1,-3.9026254E-1,-2.7645853E-1,3.7487298E-1,-4.041622E-2,-2.4667346E-1,-1.2585653E-1,7.467908E-2,-3.09525E-1,1.1942371E0,2.4946369E-1,-4.356409E-1,-7.668002E-3,2.703285E-3,-2.9990762E-1,1.2197688E0,5.064851E-1,-4.1143578E-2,-1.900164E-1,3.575541E-2,-3.051893E-1,9.270246E-1,2.1748838E-1,7.3104263E-3,-4.1705035E-2,-1.9726738E-1,-4.3448648E-1,-1.5275657E-1,-3.298206E-1,5.1528627E-1,-5.226963E-1,-1.1380589E-1,9.767613E-2,-2.0336139E-1,-4.8006803E-1,6.788262E-1,-1.4498547E-1,-6.7961164E-4,1.279429E-1,-5.088809E-2,-1.6563047E-2,2.24689E-1,9.436827E-2,3.200597E-3,7.507279E-2,-5.0593015E-2,-3.8788255E-2,1.934637E-2,-2.8771877E-2,-1.38768125E-2,2.2220924E-2,-2.289849E-2,-4.110887E-2,1.6452764E-1,9.068001E-2,2.544106E-2,9.759594E-2,-9.063989E-4,-2.4731254E-2,-1.2825984E-2,3.9678406E-2,-2.1473529E-2,-3.9064106E-2,7.3295094E-2,1.4292581E-1,2.9057474E-3,3.4245264E-2,-1.0657649E-2,-3.7547205E-2,-3.0718956E-2,-4.8475917E-2,-2.8428221E-2,-4.600264E-3,-3.481209E-2,-2.7744997E-2,-3.391116E-2,6.5984756E-2,-6.793343E-2,1.5621073E-2,-3.47211E-2,-7.7913227E-3,4.1604023E-2,-1.4644606E-3,-5.095468E-2,-1.8209966E-2,-3.7420955E-2,-5.8669563E-2,1.3469706E-1,-3.542464E-2,1.515151E-3,-1.6953556E-2],"categories":[],"categories_nodes":[],"categories_segments":[],"categories_sizes":[],"default_left":[0,0,0,0,0,0,0,0,0,0,0,0,0,0,0,0,0,0,0,0,0,0,0,0,0,0,0,0,0,0,0,0,0,0,0,0,0,0,0,0,0,0,0,0,0,0,0,0,0,0,0,0,0,0,0,0,0,0,0,0,0,0,0,0,0,0,0,0,0,0,0,0,0,0,0,0,0,0,0,0,0,0,0,0,0,0,0,0,0,0,0,0,0,0,0,0,0,0,0,0,0,0,0,0,0,0,0,0,0,0,0,0,0,0,0],"id":11,"left_children":[1,3,5,7,9,11,13,15,17,19,21,23,25,27,29,31,33,35,37,39,41,43,45,-1,47,49,51,53,55,57,59,61,63,65,67,69,71,73,75,77,79,-1,81,83,85,87,89,-1,-1,91,93,95,97,99,101,103,105,107,109,111,113,-1,-1,-1,-1,-1,-1,-1,-1,-1,-1,-1,-1,-1,-1,-1,-1,-1,-1,-1,-1,-1,-1,-1,-1,-1,-1,-1,-1,-1,-1,-1,-1,-1,-1,-1,-1,-1,-1,-1,-1,-1,-1,-1,-1,-1,-1,-1,-1,-1,-1,-1,-1,-1,-1],"loss_changes":[1.2373443E2,1.1584427E2,1.7695763E1,8.199026E1,8.950847E1,3.734993E0,2.3176247E1,1.4498466E2,1.62025E1,5.2047913E1,1.1280336E2,3.5326576E-1,5.866413E-1,1.9265495E1,9.037582E0,7.965275E1,1.0287143E2,1.7768326E0,2.0117022E1,4.2053986E1,2.2583008E-2,2.9888004E1,5.5077972E1,0E0,2.7132082E-1,5.6295013E-1,1.0915899E0,1.5645077E1,1.3429263E1,8.47464E0,3.577873E1,1.3016518E2,2.6020172E1,3.4540466E1,7.420753E1,1.04245E0,6.7526114E-1,1.1489693E1,4.203331E0,1.2091476E1,5.4070908E1,0E0,3.9229885E-2,2.900664E1,4.113209E0,1.0161514E1,5.4195534E1,0E0,0E0,2.1856815E-1,2.414608E-1,7.451298E-1,1.8421173E-2,1.3316128E1,1.9139433E0,7.21951E0,1.6455185E1,4.5749073E0,1.2703953E0,3.7750214E1,8.907135E0,0E0,0E0,0E0,0E0,0E0,0E0,0E0,0E0,0E0,0E0,0E0,0E0,0E0,0E0,0E0,0E0,0E0,0E0,0E0,0E0,0E0,0E0,0E0,0E0,0E0,0E0,0E0,0E0,0E0,0E0,0E0,0E0,0E0,0E0,0E0,0E0,0E0,0E0,0E0,0E0,0E0,0E0,0E0,0E0,0E0,0E0,0E0,0E0,0E0,0E0,0E0,0E0,0E0,0E0],"parents":[2147483647,0,0,1,1,2,2,3,3,4,4,5,5,6,6,7,7,8,8,9,9,10,10,11,11,12,12,13,13,14,14,15,15,16,16,17,17,18,18,19,19,20,20,21,21,22,22,24,24,25,25,26,26,27,27,28,28,29,29,30,30,31,31,32,32,33,33,34,34,35,35,36,36,37,37,38,38,39,39,40,40,42,42,43,43,44,44,45,45,46,46,49,49,50,50,51,51,52,52,53,53,54,54,55,55,56,56,57,57,58,58,59,59,60,60],"right_children":[2,4,6,8,10,12,14,16,18,20,22,24,26,28,30,32,34,36,38,40,42,44,46,-1,48,50,52,54,56,58,60,62,64,66,68,70,72,74,76,78,80,-1,82,84,86,88,90,-1,-1,92,94,96,98,100,102,104,106,108,110,112,114,-1,-1,-1,-1,-1,-1,-1,-1,-1,-1,-1,-1,-1,-1,-1,-1,-1,-1,-1,-1,-1,-1,-1,-1,-1,-1,-1,-1,-1,-1,-1,-1,-1,-1,-1,-1,-1,-1,-1,-1,-1,-1,-1,-1,-1,-1,-1,-1,-1,-1,-1,-1,-1,-1],"split_conditions":[3.2E1,1.4363E4,3.3E1,4.3E3,2.0045E4,2.93E2,3.9E1,1.74E3,4.13E3,9.2066E4,9.2066E4,2.018E3,1.35728E3,1.409394E4,7.7E2,5.64E2,1.389E3,2.9E1,8.343E3,6.41E3,2.2E1,4.6413E4,5.0719E4,-6.717389E-2,1E1,6.26E2,1.7761E4,2.5E1,2E0,9.36E2,8.62E2,7.34E2,7.06E2,6.6E2,4.745E3,2.262E3,5E0,7E3,1.8274E4,1.5E1,3.02E4,-4.1143578E-2,2.013E3,4.8132E4,7.5642E4,2E1,4.07657E5,7.3104263E-3,-4.1705035E-2,5.89E2,9E0,7E3,4.1502E4,5E0,1.7984E3,6.65E2,1.8248E3,4.438E2,1.5E3,3.6E3,2.4E3,-6.7961164E-4,1.279429E-1,-5.088809E-2,-1.6563047E-2,2.24689E-1,9.436827E-2,3.200597E-3,7.507279E-2,-5.0593015E-2,-3.8788255E-2,1.934637E-2,-2.8771877E-2,-1.38768125E-2,2.2220924E-2,-2.289849E-2,-4.110887E-2,1.6452764E-1,9.068001E-2,2.544106E-2,9.759594E-2,-9.063989E-4,-2.4731254E-2,-1.2825984E-2,3.9678406E-2,-2.1473529E-2,-3.9064106E-2,7.3295094E-2,1.4292581E-1,2.9057474E-3,3.4245264E-2,-1.0657649E-2,-3.7547205E-2,-3.0718956E-2,-4.8475917E-2,-2.8428221E-2,-4.600264E-3,-3.481209E-2,-2.7744997E-2,-3.391116E-2,6.5984756E-2,-6.793343E-2,1.5621073E-2,-3.47211E-2,-7.7913227E-3,4.1604023E-2,-1.4644606E-3,-5.095468E-2,-1.8209966E-2,-3.7420955E-2,-5.8669563E-2,1.3469706E-1,-3.542464E-2,1.515151E-3,-1.6953556E-2],"split_indices":[0,5,0,4,4,5,0,5,5,5,5,1,8,7,5,4,4,0,4,4,3,4,4,0,4,4,4,3,2,4,4,5,5,4,5,5,3,5,4,0,5,0,1,5,4,0,5,0,0,5,3,5,5,3,9,5,9,9,4,5,4,0,0,0,0,0,0,0,0,0,0,0,0,0,0,0,0,0,0,0,0,0,0,0,0,0,0,0,0,0,0,0,0,0,0,0,0,0,0,0,0,0,0,0,0,0,0,0,0,0,0,0,0,0,0],"split_type":[0,0,0,0,0,0,0,0,0,0,0,0,0,0,0,0,0,0,0,0,0,0,0,0,0,0,0,0,0,0,0,0,0,0,0,0,0,0,0,0,0,0,0,0,0,0,0,0,0,0,0,0,0,0,0,0,0,0,0,0,0,0,0,0,0,0,0,0,0,0,0,0,0,0,0,0,0,0,0,0,0,0,0,0,0,0,0,0,0,0,0,0,0,0,0,0,0,0,0,0,0,0,0,0,0,0,0,0,0,0,0,0,0,0,0],"sum_hessian":[1.3299E4,8.398E3,4.901E3,4.342E3,4.056E3,2.93E2,4.608E3,3.052E3,1.29E3,6.11E2,3.445E3,4.6E1,2.47E2,1.444E3,3.164E3,2.234E3,8.18E2,3.78E2,9.12E2,5.59E2,5.2E1,1.03E3,2.415E3,3.8E1,8E0,7.5E1,1.72E2,1.21E2,1.323E3,8.47E2,2.317E3,1.325E3,9.09E2,1.38E2,6.8E2,3.68E2,1E1,3.68E2,5.44E2,1.01E2,4.58E2,4.9E1,3E0,4.88E2,5.42E2,1.14E2,2.301E3,1E0,7E0,1.5E1,6E1,5.3E1,1.19E2,1.05E2,1.6E1,8.64E2,4.59E2,7.16E2,1.31E2,5.3E1,2.264E3,1.242E3,8.3E1,3.8E2,5.29E2,2.5E1,1.13E2,4.75E2,2.05E2,1.45E2,2.23E2,6E0,4E0,2.24E2,1.44E2,3.34E2,2.1E2,4.1E1,6E1,2.99E2,1.59E2,1E0,2E0,3.36E2,1.52E2,2.65E2,2.77E2,8.4E1,3E1,9.18E2,1.383E3,1.1E1,4E0,1.9E1,4.1E1,2.3E1,3E1,8.4E1,3.5E1,1.5E1,9E1,1.3E1,3E0,1.14E2,7.5E2,1.19E2,3.4E2,4.5E1,6.71E2,6.8E1,6.3E1,3.2E1,2.1E1,3.01E2,1.963E3],"tree_param":{"num_deleted":"0","num_feature":"10","num_nodes":"115","size_leaf_vector":"1"}},{"base_weights":[6.381313E-4,-3.852622E-2,1.9549192E-1,-1.2550504E-2,-2.3349404E-1,4.789581E-1,1.24992475E-1,-4.1078463E-2,4.3319595E-1,-2.823634E-1,-9.439195E-2,7.052998E-1,-3.804494E-1,-3.7199706E-2,3.559906E-1,-1.3697436E-1,1.7339578E-2,9.9682254E-1,2.4134697E-1,-2.5776365E-1,-4.1192043E-1,1.5165201E-1,-2.737622E-1,9.98629E-1,5.035949E-1,-3.647956E-2,-7.284672E-2,1.2500805E-1,-2.3652261E-1,8.8846177E-1,2.7087173E-1,-1.031529E-2,-3.177193E-1,1.5795213E0,-1.1071879E-2,7.1236664E-1,1.3163023E0,1.2486026E-1,6.993467E-1,-3.439889E-1,-1.98919E-1,-4.8184535E-1,-3.3170435E-1,4.2563474E-1,8.767585E-2,-3.8982174E-1,-1.858432E-1,5.2187735E-1,1.077058E0,4.5736447E-1,1.4852555E0,-6.849351E-2,4.948527E-1,-1.4702645E-1,-3.9124542E-1,6.813169E-1,1.2596116E0,6.1827004E-1,1.1009666E-1,-9.092387E-3,6.1729964E-2,-2.2877745E-2,-4.66581E-2,2.1692622E-1,1.338291E-1,1.5001938E-2,-9.409485E-3,9.2380814E-2,5.3975344E-2,1.6924529E-1,9.4524086E-2,3.3665687E-2,4.7509903E-3,8.7697715E-2,5.0617523E-2,-4.051492E-2,-3.1538725E-2,-2.6715538E-2,-1.4843011E-2,-3.4180403E-2,-5.0932687E-2,-3.662593E-2,-2.6881514E-2,2.1976799E-2,7.050984E-2,1.2230572E-2,-6.067822E-3,-2.778067E-2,-5.2460283E-2,-3.1020925E-3,-2.3588974E-2,7.6322846E-2,1.5593317E-2,8.5547425E-2,1.280985E-1,7.076722E-2,2.6184758E-2,1.6515054E-1,6.022541E-2,-1.5282354E-2,8.99025E-3,1.408475E-1,4.5915212E-2,-2.4104226E-2,1.6532611E-2,-4.413001E-2,-2.6028607E-2,-1.4579102E-2,7.223656E-2,1.2993038E-2,1.289016E-1,7.1530476E-2,6.3070054E-3,5.7934485E-3,1.0442292E-1],"categories":[],"categories_nodes":[],"categories_segments":[],"categories_sizes":[],"default_left":[0,0,0,0,0,0,0,0,0,0,0,0,0,0,0,0,0,0,0,0,0,0,0,0,0,0,0,0,0,0,0,0,0,0,0,0,0,0,0,0,0,0,0,0,0,0,0,0,0,0,0,0,0,0,0,0,0,0,0,0,0,0,0,0,0,0,0,0,0,0,0,0,0,0,0,0,0,0,0,0,0,0,0,0,0,0,0,0,0,0,0,0,0,0,0,0,0,0,0,0,0,0,0,0,0,0,0,0,0,0,0,0,0,0,0],"id":12,"left_children":[1,3,5,7,9,11,13,15,17,19,21,23,25,27,29,31,33,35,37,39,41,43,45,47,49,-1,-1,51,53,55,57,59,61,63,65,67,69,71,73,75,77,79,81,83,85,87,89,91,93,95,97,99,101,103,105,107,109,111,113,-1,-1,-1,-1,-1,-1,-1,-1,-1,-1,-1,-1,-1,-1,-1,-1,-1,-1,-1,-1,-1,-1,-1,-1,-1,-1,-1,-1,-1,-1,-1,-1,-1,-1,-1,-1,-1,-1,-1,-1,-1,-1,-1,-1,-1,-1,-1,-1,-1,-1,-1,-1,-1,-1,-1,-1],"loss_changes":[1.0150411E2,5.608561E1,4.4424988E1,1.24306305E2,8.82412E0,8.644058E1,6.685274E1,5.146842E1,6.334056E1,2.9629822E0,1.5046723E1,2.0264343E1,2.4090481E-1,3.394554E1,3.3117317E1,7.961854E1,2.5344933E2,1.2603119E1,2.3387068E1,4.0515785E0,6.9275284E-1,2.4867659E0,1.9377108E0,4.747467E0,8.851036E0,0E0,0E0,4.147033E1,6.4644604E0,6.9068604E0,3.545443E1,1.0356561E2,1.8866226E1,1.1607758E1,7.503042E1,2.457676E0,8.030884E0,5.750661E0,2.60997E0,4.459839E-1,1.631258E0,1.2994576E-1,6.2355995E-2,1.3984137E0,6.136442E-1,1.1224527E0,8.759906E-1,1.82405E0,4.37175E0,9.700459E0,3.2656097E-1,5.102961E0,5.84404E0,8.849674E0,1.0126171E0,2.3800812E0,9.9513245E-1,1.0783493E1,2.1184206E1,0E0,0E0,0E0,0E0,0E0,0E0,0E0,0E0,0E0,0E0,0E0,0E0,0E0,0E0,0E0,0E0,0E0,0E0,0E0,0E0,0E0,0E0,0E0,0E0,0E0,0E0,0E0,0E0,0E0,0E0,0E0,0E0,0E0,0E0,0E0,0E0,0E0,0E0,0E0,0E0,0E0,0E0,0E0,0E0,0E0,0E0,0E0,0E0,0E0,0E0,0E0,0E0,0E0,0E0,0E0,0E0],"parents":[2147483647,0,0,1,1,2,2,3,3,4,4,5,5,6,6,7,7,8,8,9,9,10,10,11,11,12,12,13,13,14,14,15,15,16,16,17,17,18,18,19,19,20,20,21,21,22,22,23,23,24,24,27,27,28,28,29,29,30,30,31,31,32,32,33,33,34,34,35,35,36,36,37,37,38,38,39,39,40,40,41,41,42,42,43,43,44,44,45,45,46,46,47,47,48,48,49,49,50,50,51,51,52,52,53,53,54,54,55,55,56,56,57,57,58,58],"right_children":[2,4,6,8,10,12,14,16,18,20,22,24,26,28,30,32,34,36,38,40,42,44,46,48,50,-1,-1,52,54,56,58,60,62,64,66,68,70,72,74,76,78,80,82,84,86,88,90,92,94,96,98,100,102,104,106,108,110,112,114,-1,-1,-1,-1,-1,-1,-1,-1,-1,-1,-1,-1,-1,-1,-1,-1,-1,-1,-1,-1,-1,-1,-1,-1,-1,-1,-1,-1,-1,-1,-1,-1,-1,-1,-1,-1,-1,-1,-1,-1,-1,-1,-1,-1,-1,-1,-1,-1,-1,-1,-1,-1,-1,-1,-1,-1],"split_conditions":[2.18934E5,7.9381E4,2.15619E5,6.1473E4,1.45368E5,1.302615E6,1.163725E6,1.217E3,3.3926E4,2.15619E5,1.58285E5,1.5E1,1.4931E4,4.4613E5,5.905E2,4.86E2,8.62E2,2E1,1.39206E5,5.7193E4,2.7E1,9.4705E4,2.6E1,2.54351E5,5.49109E5,-3.647956E-2,-7.284672E-2,5.85616E5,7.171E5,5.866E2,9E0,3.42E2,1.33E3,6.61248E4,5.379E3,1.5E1,2.5E1,4.7611E4,3E0,2.8301E4,2.9E1,6.8866E4,1.18472E5,1.85E5,4.22059E4,8.054952E4,1.97782E5,1.0437E5,2.013E3,1.52905E5,2.012E3,4.07657E5,1E0,8.46657E5,2.6E1,1.998E3,1.302615E6,8.585E3,2.4E1,-9.092387E-3,6.1729964E-2,-2.2877745E-2,-4.66581E-2,2.1692622E-1,1.338291E-1,1.5001938E-2,-9.409485E-3,9.2380814E-2,5.3975344E-2,1.6924529E-1,9.4524086E-2,3.3665687E-2,4.7509903E-3,8.7697715E-2,5.0617523E-2,-4.051492E-2,-3.1538725E-2,-2.6715538E-2,-1.4843011E-2,-3.4180403E-2,-5.0932687E-2,-3.662593E-2,-2.6881514E-2,2.1976799E-2,7.050984E-2,1.2230572E-2,-6.067822E-3,-2.778067E-2,-5.2460283E-2,-3.1020925E-3,-2.3588974E-2,7.6322846E-2,1.5593317E-2,8.5547425E-2,1.280985E-1,7.076722E-2,2.6184758E-2,1.6515054E-1,6.022541E-2,-1.5282354E-2,8.99025E-3,1.408475E-1,4.5915212E-2,-2.4104226E-2,1.6532611E-2,-4.413001E-2,-2.6028607E-2,-1.4579102E-2,7.223656E-2,1.2993038E-2,1.289016E-1,7.1530476E-2,6.3070054E-3,5.7934485E-3,1.0442292E-1],"split_indices":[5,4,4,5,5,5,5,5,4,4,4,0,4,4,6,4,4,0,5,5,0,4,0,5,5,0,0,5,4,9,3,5,4,7,4,0,0,4,2,5,0,5,5,5,8,8,4,4,1,4,1,5,2,5,0,1,5,9,3,0,0,0,0,0,0,0,0,0,0,0,0,0,0,0,0,0,0,0,0,0,0,0,0,0,0,0,0,0,0,0,0,0,0,0,0,0,0,0,0,0,0,0,0,0,0,0,0,0,0,0,0,0,0,0,0],"split_type":[0,0,0,0,0,0,0,0,0,0,0,0,0,0,0,0,0,0,0,0,0,0,0,0,0,0,0,0,0,0,0,0,0,0,0,0,0,0,0,0,0,0,0,0,0,0,0,0,0,0,0,0,0,0,0,0,0,0,0,0,0,0,0,0,0,0,0,0,0,0,0,0,0,0,0,0,0,0,0,0,0,0,0,0,0,0,0,0,0,0,0,0,0,0,0,0,0,0,0,0,0,0,0,0,0,0,0,0,0,0,0,0,0,0,0],"sum_hessian":[1.3299E4,1.1074E4,2.225E3,9.773E3,1.301E3,4.42E2,1.783E3,9.186E3,5.87E2,9.62E2,3.39E2,3.5E2,9.2E1,1.048E3,7.35E2,3.477E3,5.709E3,1.48E2,4.39E2,8.11E2,1.51E2,1.43E2,1.96E2,1.41E2,2.09E2,9E1,2E0,5.78E2,4.7E2,1E2,6.35E2,2.045E3,1.432E3,1.01E2,5.608E3,8E1,6.8E1,3.51E2,8.8E1,3.27E2,4.84E2,7.8E1,7.3E1,2.6E1,1.17E2,8.3E1,1.13E2,2.1E1,1.2E2,2.01E2,8E0,3.8E2,1.98E2,2.99E2,1.71E2,6.6E1,3.4E1,2E2,4.35E2,1.813E3,2.32E2,8.98E2,5.34E2,2.7E1,7.4E1,1.907E3,3.701E3,3.4E1,4.6E1,3.2E1,3.6E1,9.3E1,2.58E2,4.4E1,4.4E1,1E2,2.27E2,2.04E2,2.8E2,1.5E1,6.3E1,4.4E1,2.9E1,1.6E1,1E1,9.5E1,2.2E1,4.7E1,3.6E1,2.8E1,8.5E1,1.2E1,9E0,6E1,6E1,8.7E1,1.14E2,6E0,2E0,2.48E2,1.32E2,6E0,1.92E2,2.3E2,6.9E1,1.22E2,4.9E1,3E0,6.3E1,1E0,3.3E1,1.7E2,3E1,4.13E2,2.2E1],"tree_param":{"num_deleted":"0","num_feature":"10","num_nodes":"115","size_leaf_vector":"1"}},{"base_weights":[6.994755E-4,-8.721413E-2,8.014499E-2,-5.9907353E-3,-2.547E-1,4.6132275E-1,3.505449E-2,-5.6083646E-2,7.24507E-1,-4.0499455E-1,-1.7699134E-1,5.700143E-1,-3.2879744E-2,-1.05322875E-1,1.3589887E-1,-1.2496475E-1,1.2511787E-1,1.6035165E0,5.393177E-1,-4.4828275E-1,-3.1536636E-1,-8.842299E-2,-3.2741725E-1,1.4331832E0,4.7329757E-1,3.921955E-2,-2.2641237E-1,8.3624834E-1,1.0152882E-1,7.717068E-2,-2.704085E-1,1.1743513E0,-1.2243376E-2,-2.3884345E-2,1.6487601E0,4.1068348E-1,7.99728E-1,-5.2944668E-2,-4.31077E-1,-2.0610128E-1,-4.0101132E-1,-1.7820679E-1,2.7693763E-2,-2.8529552E-1,-3.8550636E-1,2.1631442E-1,1.2270949E0,3.08886E-1,1.0650773E0,-7.305101E-2,4.6686658E-1,-3.3058244E-1,-1.677969E-1,6.103389E-1,1.1210722E0,-8.586576E-3,2.4348524E-1,-7.118749E-3,1.0023924E-1,-4.371747E-2,-1.7933585E-2,9.105799E-2,1.815813E-1,2.1637356E-2,-1.1877487E-2,8.8119544E-2,1.7871633E-1,5.909294E-2,2.365694E-2,1.09668665E-1,6.160278E-2,-4.3918233E-2,-3.2566138E-2,-1.2962396E-2,-2.6223442E-2,-3.5792556E-2,-4.4758312E-2,-3.5594646E-3,-2.1069283E-2,3.1309623E-2,-5.7038325E-3,-3.3809092E-2,-1.9294975E-2,-3.6131617E-2,-4.5520496E-2,8.19909E-2,1.5613714E-1,4.851895E-2,8.13044E-3,1.3774373E-1,8.511918E-2,-1.2250838E-2,1.1179023E-2,9.0583615E-2,3.027027E-2,-3.7681498E-2,-2.7424384E-2,-1.4151804E-4,-2.2390595E-2,5.1243115E-2,8.71816E-2,1.4745787E-1,8.005773E-2,1.33112315E-2,-2.2022028E-2,6.930876E-2,1.5747042E-2],"categories":[],"categories_nodes":[],"categories_segments":[],"categories_sizes":[],"default_left":[0,0,0,0,0,0,0,0,0,0,0,0,0,0,0,0,0,0,0,0,0,0,0,0,0,0,0,0,0,0,0,0,0,0,0,0,0,0,0,0,0,0,0,0,0,0,0,0,0,0,0,0,0,0,0,0,0,0,0,0,0,0,0,0,0,0,0,0,0,0,0,0,0,0,0,0,0,0,0,0,0,0,0,0,0,0,0,0,0,0,0,0,0,0,0,0,0,0,0,0,0,0,0,0,0,0,0],"id":13,"left_children":[1,3,5,7,9,11,13,15,17,19,21,23,-1,25,27,29,31,33,35,37,39,41,43,45,47,49,51,53,55,57,59,61,63,-1,65,67,69,-1,71,73,75,77,79,81,83,-1,85,87,89,91,93,95,97,99,101,103,105,-1,-1,-1,-1,-1,-1,-1,-1,-1,-1,-1,-1,-1,-1,-1,-1,-1,-1,-1,-1,-1,-1,-1,-1,-1,-1,-1,-1,-1,-1,-1,-1,-1,-1,-1,-1,-1,-1,-1,-1,-1,-1,-1,-1,-1,-1,-1,-1,-1,-1],"loss_changes":[9.289872E1,8.5892685E1,1.2007286E2,1.5566963E2,2.4010803E1,6.3652252E1,8.847684E1,4.970393E1,4.357498E1,2.5822754E0,1.8103622E1,5.3585556E1,0E0,4.5743095E1,8.746148E1,8.483797E1,1.5811844E2,4.3114777E0,7.2755356E0,4.2951202E-1,2.0884094E0,8.94993E0,1.1232109E0,7.1239777E0,5.6686142E1,5.7264614E1,8.627228E0,1.0254303E1,5.4212437E1,1.6588652E2,2.5406776E1,1.983487E1,2.3674309E1,0E0,3.3118973E0,4.693239E0,3.3612137E0,0E0,1.9361877E-1,4.124713E-1,9.8646164E-2,2.2348251E0,9.086389E0,1.3778915E0,1.8790627E-1,0E0,5.933792E0,1.8417324E1,7.312317E0,8.652658E0,1.7597416E1,1.2276497E0,8.513678E0,2.036518E0,7.2034683E0,5.8626373E1,5.8479637E1,0E0,0E0,0E0,0E0,0E0,0E0,0E0,0E0,0E0,0E0,0E0,0E0,0E0,0E0,0E0,0E0,0E0,0E0,0E0,0E0,0E0,0E0,0E0,0E0,0E0,0E0,0E0,0E0,0E0,0E0,0E0,0E0,0E0,0E0,0E0,0E0,0E0,0E0,0E0,0E0,0E0,0E0,0E0,0E0,0E0,0E0,0E0,0E0,0E0,0E0],"parents":[2147483647,0,0,1,1,2,2,3,3,4,4,5,5,6,6,7,7,8,8,9,9,10,10,11,11,13,13,14,14,15,15,16,16,17,17,18,18,19,19,20,20,21,21,22,22,23,23,24,24,25,25,26,26,27,27,28,28,29,29,30,30,31,31,32,32,34,34,35,35,36,36,38,38,39,39,40,40,41,41,42,42,43,43,44,44,46,46,47,47,48,48,49,49,50,50,51,51,52,52,53,53,54,54,55,55,56,56],"right_children":[2,4,6,8,10,12,14,16,18,20,22,24,-1,26,28,30,32,34,36,38,40,42,44,46,48,50,52,54,56,58,60,62,64,-1,66,68,70,-1,72,74,76,78,80,82,84,-1,86,88,90,92,94,96,98,100,102,104,106,-1,-1,-1,-1,-1,-1,-1,-1,-1,-1,-1,-1,-1,-1,-1,-1,-1,-1,-1,-1,-1,-1,-1,-1,-1,-1,-1,-1,-1,-1,-1,-1,-1,-1,-1,-1,-1,-1,-1,-1,-1,-1,-1,-1,-1,-1,-1,-1,-1,-1],"split_conditions":[7E3,2.632E3,1.2773822E6,2.5E3,2.675E3,8.1726E4,6.1473E4,8.05E2,1.282E3,2.053E3,7.833E3,3.522E3,-3.2879744E-2,2.7096E4,3.6827E4,1.44E2,6.6E2,6.216E1,4E3,8.05E2,4E3,4.358E3,1.29E4,2.33E3,1.9008E4,2.746E4,2.5893E4,2E1,4.32637E5,1.01E2,2.52E2,1.348E3,1.236E3,-2.3884345E-2,2.581E3,1.933E3,1.1947E3,-5.2944668E-2,2.3E1,3E3,7.2E3,3.172E3,3.876E3,5.1E3,2.2715E4,2.1631442E-1,8.865E3,6.914E3,6.732E3,2.0219E4,1.4931E4,1.9008E4,4.1E4,9.4851E4,2.5E1,1.79295E5,2.88129E5,-7.118749E-3,1.0023924E-1,-4.371747E-2,-1.7933585E-2,9.105799E-2,1.815813E-1,2.1637356E-2,-1.1877487E-2,8.8119544E-2,1.7871633E-1,5.909294E-2,2.365694E-2,1.09668665E-1,6.160278E-2,-4.3918233E-2,-3.2566138E-2,-1.2962396E-2,-2.6223442E-2,-3.5792556E-2,-4.4758312E-2,-3.5594646E-3,-2.1069283E-2,3.1309623E-2,-5.7038325E-3,-3.3809092E-2,-1.9294975E-2,-3.6131617E-2,-4.5520496E-2,8.19909E-2,1.5613714E-1,4.851895E-2,8.13044E-3,1.3774373E-1,8.511918E-2,-1.2250838E-2,1.1179023E-2,9.0583615E-2,3.027027E-2,-3.7681498E-2,-2.7424384E-2,-1.4151804E-4,-2.2390595E-2,5.1243115E-2,8.71816E-2,1.4745787E-1,8.005773E-2,1.33112315E-2,-2.2022028E-2,6.930876E-2,1.5747042E-2],"split_indices":[5,4,7,5,5,5,5,5,4,5,4,4,0,4,4,4,4,8,5,5,4,5,4,4,5,5,5,0,5,5,5,5,4,0,5,4,6,0,3,4,4,4,4,5,4,0,5,4,4,5,4,5,4,5,0,4,4,0,0,0,0,0,0,0,0,0,0,0,0,0,0,0,0,0,0,0,0,0,0,0,0,0,0,0,0,0,0,0,0,0,0,0,0,0,0,0,0,0,0,0,0,0,0,0,0,0,0],"split_type":[0,0,0,0,0,0,0,0,0,0,0,0,0,0,0,0,0,0,0,0,0,0,0,0,0,0,0,0,0,0,0,0,0,0,0,0,0,0,0,0,0,0,0,0,0,0,0,0,0,0,0,0,0,0,0,0,0,0,0,0,0,0,0,0,0,0,0,0,0,0,0,0,0,0,0,0,0,0,0,0,0,0,0,0,0,0,0,0,0,0,0,0,0,0,0,0,0,0,0,0,0,0,0,0,0,0,0],"sum_hessian":[1.3299E4,6.313E3,6.986E3,4.252E3,2.061E3,7.38E2,6.248E3,3.98E3,2.72E2,7.01E2,1.36E3,6.49E2,8.9E1,2.612E3,3.636E3,2.884E3,1.096E3,4.6E1,2.26E2,4.7E2,2.31E2,8.57E2,5.03E2,6.4E1,5.85E2,1.191E3,1.421E3,1.69E2,3.467E3,1.207E3,1.677E3,1.26E2,9.7E2,1E0,4.5E1,1.53E2,7.3E1,7.7E1,3.93E2,1.03E2,1.28E2,4.83E2,3.74E2,2.95E2,2.08E2,1.2E1,5.2E1,4.59E2,1.26E2,9.44E2,2.47E2,5.1E2,9.11E2,9.6E1,7.3E1,1.953E3,1.514E3,1.041E3,1.66E2,5.91E2,1.086E3,9.1E1,3.5E1,3.08E2,6.62E2,8E0,3.7E1,7.4E1,7.9E1,2.6E1,4.7E1,3.62E2,3.1E1,4.5E1,5.8E1,7.1E1,5.7E1,9E1,3.93E2,8.5E1,2.89E2,1.86E2,1.09E2,1.59E2,4.9E1,2.5E1,2.7E1,2.58E2,2.01E2,4.9E1,7.7E1,7.45E2,1.99E2,6.6E1,1.81E2,2.77E2,2.33E2,2.3E2,6.81E2,7.2E1,2.4E1,3.3E1,4E1,1.17E3,7.83E2,2.42E2,1.272E3],"tree_param":{"num_deleted":"0","num_feature":"10","num_nodes":"107","size_leaf_vector":"1"}},{"base_weights":[7.5008196E-4,-7.8424945E-2,7.229873E-2,-4.1508926E-3,-2.2735995E-1,4.797698E-1,3.7751768E-2,-7.283775E-2,4.4694543E-1,-3.6204386E-1,-1.5568338E-1,6.315531E-1,-2.9628301E-2,-3.6077384E-2,1.8130994E-1,2.3738633E-1,-1.05525166E-1,1.5371118E0,3.364022E-1,-4.006079E-1,-2.8080204E-1,-6.180856E-2,-2.7724054E-1,1.4645063E0,5.415012E-1,9.988039E-2,-1.3618661E-1,6.9972104E-1,1.09199084E-1,7.4968375E-2,1.4556731E0,-4.7786775E-1,-6.301855E-2,1.5883001E0,5.385731E-1,1.574494E-1,6.267324E-1,-4.549932E-2,-3.7702027E-1,-1.8357196E-1,-3.6153463E-1,-1.4157026E-1,5.2901983E-2,-2.3682699E-1,-3.4462193E-1,1.5449191E0,2.741476E-1,3.9520952E-1,1.1201439E0,-4.34243E-2,5.624502E-1,-2.059304E-1,-2.4251062E-3,9.9504095E-1,5.634439E-1,5.9047233E-2,6.22397E-1,3.94641E-2,-2.8000856E-2,1.0277939E-1,1.8535566E-1,-3.0327221E-2,-5.8911987E-2,4.6029117E-2,-1.28556965E-2,1.1407434E-1,1.7390369E-1,2.1205784E-3,7.039603E-2,4.0015142E-2,-1.0818058E-3,1.2851952E-1,5.3008627E-2,-3.3734646E-2,-4.0844545E-2,-1.2003931E-2,-2.3645548E-2,-3.2263014E-2,-4.035965E-2,4.859553E-3,-1.714664E-2,2.8844794E-2,-3.6671066E-3,-2.9455218E-2,-1.3471919E-2,-4.0837806E-2,-3.1792935E-2,1.990947E-1,1.3150106E-1,-2.8168857E-3,3.843094E-2,5.7199754E-2,2.9244274E-2,1.4182632E-1,8.616214E-2,-1.0512121E-2,1.1905028E-2,1.2208214E-1,4.8935678E-2,-3.1176472E-2,-1.637484E-2,3.4069058E-2,-1.53157255E-2,1.0324726E-1,-3.472956E-2,4.3677676E-2,1.0938235E-1,1.9470036E-2,-6.9294064E-3,8.988556E-2,2.5654519E-2],"categories":[],"categories_nodes":[],"categories_segments":[],"categories_sizes":[],"default_left":[0,0,0,0,0,0,0,0,0,0,0,0,0,0,0,0,0,0,0,0,0,0,0,0,0,0,0,0,0,0,0,0,0,0,0,0,0,0,0,0,0,0,0,0,0,0,0,0,0,0,0,0,0,0,0,0,0,0,0,0,0,0,0,0,0,0,0,0,0,0,0,0,0,0,0,0,0,0,0,0,0,0,0,0,0,0,0,0,0,0,0,0,0,0,0,0,0,0,0,0,0,0,0,0,0,0,0,0,0,0,0],"id":14,"left_children":[1,3,5,7,9,11,13,15,17,19,21,23,-1,25,27,29,31,33,35,37,39,41,43,45,47,49,51,53,55,57,59,61,63,65,67,69,71,-1,73,75,77,79,81,83,85,87,89,91,93,95,97,99,101,103,105,107,109,-1,-1,-1,-1,-1,-1,-1,-1,-1,-1,-1,-1,-1,-1,-1,-1,-1,-1,-1,-1,-1,-1,-1,-1,-1,-1,-1,-1,-1,-1,-1,-1,-1,-1,-1,-1,-1,-1,-1,-1,-1,-1,-1,-1,-1,-1,-1,-1,-1,-1,-1,-1,-1,-1],"loss_changes":[7.534838E1,6.984456E1,9.83371E1,1.3060077E2,2.0226028E1,6.450149E1,6.8283875E1,3.711872E1,6.660727E1,2.171463E0,1.5650379E1,3.348607E1,0E0,5.7926823E1,8.171774E1,6.894807E1,5.2357338E1,1.7513733E0,2.624271E1,4.5961E-1,1.8018456E0,7.1075063E0,1.5468102E0,3.7881622E0,3.460266E1,1.1967502E2,2.2864964E1,1.01848755E1,4.9431347E1,3.517471E1,5.0750275E0,6.4061127E0,1.01989525E2,1.2544327E0,3.273356E-1,1.2868568E1,1.1600838E1,0E0,2.9732895E-1,3.411975E-1,8.088493E-2,2.6121655E0,6.7410216E0,2.1824303E0,2.4796677E-1,1.5862503E0,1.440404E-1,5.8644753E0,5.1748505E0,1.3835856E1,1.9950912E1,7.1409454E0,4.354749E1,4.528984E0,1.1950851E1,3.0515635E1,1.7064835E1,0E0,0E0,0E0,0E0,0E0,0E0,0E0,0E0,0E0,0E0,0E0,0E0,0E0,0E0,0E0,0E0,0E0,0E0,0E0,0E0,0E0,0E0,0E0,0E0,0E0,0E0,0E0,0E0,0E0,0E0,0E0,0E0,0E0,0E0,0E0,0E0,0E0,0E0,0E0,0E0,0E0,0E0,0E0,0E0,0E0,0E0,0E0,0E0,0E0,0E0,0E0,0E0,0E0,0E0],"parents":[2147483647,0,0,1,1,2,2,3,3,4,4,5,5,6,6,7,7,8,8,9,9,10,10,11,11,13,13,14,14,15,15,16,16,17,17,18,18,19,19,20,20,21,21,22,22,23,23,24,24,25,25,26,26,27,27,28,28,29,29,30,30,31,31,32,32,33,33,34,34,35,35,36,36,38,38,39,39,40,40,41,41,42,42,43,43,44,44,45,45,46,46,47,47,48,48,49,49,50,50,51,51,52,52,53,53,54,54,55,55,56,56],"right_children":[2,4,6,8,10,12,14,16,18,20,22,24,-1,26,28,30,32,34,36,38,40,42,44,46,48,50,52,54,56,58,60,62,64,66,68,70,72,-1,74,76,78,80,82,84,86,88,90,92,94,96,98,100,102,104,106,108,110,-1,-1,-1,-1,-1,-1,-1,-1,-1,-1,-1,-1,-1,-1,-1,-1,-1,-1,-1,-1,-1,-1,-1,-1,-1,-1,-1,-1,-1,-1,-1,-1,-1,-1,-1,-1,-1,-1,-1,-1,-1,-1,-1,-1,-1,-1,-1,-1,-1,-1,-1,-1,-1,-1],"split_conditions":[7E3,2.561E3,7.6E3,1.74E3,2.675E3,3.8407E4,2.07441E5,1.2E1,8.62E2,2.053E3,7.036E3,3.08E3,-2.9628301E-2,3.3926E4,1.79295E5,1.5E1,3.1E1,1.3045564E5,2.744E3,1.02E3,4E3,4.358E3,1.2481E4,4.9805E3,1.8002E4,3.2E4,9.4851E4,1.07731E5,7.046043E6,8E0,2.2E1,2.3E1,1.227125E4,1.1254E3,1.8E3,1.683E3,1.389E3,-4.549932E-2,5.8431756E5,3E3,7.2E3,3E3,3.876E3,5.1E3,4.745E3,2.249E3,2.632E3,4.963E3,5.379E3,2.085E4,1.2481E4,2.8301E4,8.2486E4,3.5E1,4.63374E5,1.2E1,3.992412E6,3.94641E-2,-2.8000856E-2,1.0277939E-1,1.8535566E-1,-3.0327221E-2,-5.8911987E-2,4.6029117E-2,-1.28556965E-2,1.1407434E-1,1.7390369E-1,2.1205784E-3,7.039603E-2,4.0015142E-2,-1.0818058E-3,1.2851952E-1,5.3008627E-2,-3.3734646E-2,-4.0844545E-2,-1.2003931E-2,-2.3645548E-2,-3.2263014E-2,-4.035965E-2,4.859553E-3,-1.714664E-2,2.8844794E-2,-3.6671066E-3,-2.9455218E-2,-1.3471919E-2,-4.0837806E-2,-3.1792935E-2,1.990947E-1,1.3150106E-1,-2.8168857E-3,3.843094E-2,5.7199754E-2,2.9244274E-2,1.4182632E-1,8.616214E-2,-1.0512121E-2,1.1905028E-2,1.2208214E-1,4.8935678E-2,-3.1176472E-2,-1.637484E-2,3.4069058E-2,-1.53157255E-2,1.0324726E-1,-3.472956E-2,4.3677676E-2,1.0938235E-1,1.9470036E-2,-6.9294064E-3,8.988556E-2,2.5654519E-2],"split_indices":[5,4,4,5,5,5,5,4,4,5,4,4,0,4,4,5,5,7,5,5,4,5,4,9,5,5,5,4,5,3,5,4,7,6,5,4,4,0,7,4,4,4,4,5,5,4,4,4,4,5,4,5,4,0,5,3,4,0,0,0,0,0,0,0,0,0,0,0,0,0,0,0,0,0,0,0,0,0,0,0,0,0,0,0,0,0,0,0,0,0,0,0,0,0,0,0,0,0,0,0,0,0,0,0,0,0,0,0,0,0,0],"split_type":[0,0,0,0,0,0,0,0,0,0,0,0,0,0,0,0,0,0,0,0,0,0,0,0,0,0,0,0,0,0,0,0,0,0,0,0,0,0,0,0,0,0,0,0,0,0,0,0,0,0,0,0,0,0,0,0,0,0,0,0,0,0,0,0,0,0,0,0,0,0,0,0,0,0,0,0,0,0,0,0,0,0,0,0,0,0,0,0,0,0,0,0,0,0,0,0,0,0,0,0,0,0,0,0,0,0,0,0,0,0,0],"sum_hessian":[1.3299E4,6.313E3,6.986E3,4.213E3,2.1E3,5.45E2,6.441E3,3.657E3,5.56E2,7.28E2,1.372E3,4.56E2,8.9E1,4.254E3,2.187E3,3.48E2,3.309E3,5E1,5.06E2,4.91E2,2.37E2,7.75E2,5.97E2,4.3E1,4.13E2,1.804E3,2.45E3,2.66E2,1.921E3,3.08E2,4E1,3.38E2,2.971E3,4.7E1,3E0,3.14E2,1.92E2,1.43E2,3.48E2,1.09E2,1.28E2,4.57E2,3.18E2,3.76E2,2.21E2,4E1,3E0,3.31E2,8.2E1,1.378E3,4.26E2,1.61E3,8.4E2,8.2E1,1.84E2,1.751E3,1.7E2,1.62E2,1.46E2,2.1E1,1.9E1,1.33E2,2.05E2,3.3E2,2.641E3,1.4E1,3.3E1,1E0,2E0,1.28E2,1.86E2,2.3E1,1.69E2,1.59E2,1.89E2,5.1E1,5.8E1,7.1E1,5.7E1,6.2E1,3.95E2,8.7E1,2.31E2,2.39E2,1.37E2,6.1E1,1.6E2,1.1E1,2.9E1,1E0,2E0,1.2E2,2.11E2,3.6E1,4.6E1,9.99E2,3.79E2,4.1E1,3.85E2,4.57E2,1.153E3,2.56E2,5.84E2,8E1,2E0,1.5E2,3.4E1,8.51E2,9E2,9.6E1,7.4E1],"tree_param":{"num_deleted":"0","num_feature":"10","num_nodes":"111","size_leaf_vector":"1"}},{"base_weights":[7.982112E-4,-6.762033E-2,6.875525E-2,-7.3145092E-3,-2.0040612E-1,3.6483124E-1,2.6924271E-2,-7.664257E-2,3.0517298E-1,-3.4275326E-1,-1.4930977E-1,4.414914E-1,-2.6698394E-2,-1.2256835E-1,1.08010605E-1,9.705941E-3,-2.0133686E-1,1.356447E0,2.2715771E-1,-3.748306E-1,-3.1184092E-1,-7.9954594E-2,-2.7038106E-1,3.2168669E-1,9.1610813E-1,-1.8572478E-2,-2.0587626E-1,7.2045296E-1,7.782451E-2,-4.7889434E-2,8.535523E-1,-3.3916545E-1,-9.174361E-2,1.6412603E0,1.0454063E0,9.957352E-2,5.218715E-1,-4.184606E-2,-3.5619283E-1,-2.532766E-1,-3.4962362E-1,-1.6322894E-1,4.721943E-2,-2.3596068E-1,-3.3321512E-1,8.350984E-1,1.790552E-1,1.0791687E0,6.78976E-1,-9.910823E-2,2.1523158E-1,-2.715724E-1,-1.5355271E-1,9.1865325E-1,5.0730884E-1,-1.7510998E-3,2.272836E-1,6.3156127E-3,-2.036849E-2,1.420414E-1,5.3619754E-2,-2.5818242E-2,-4.345136E-2,8.62552E-3,-2.106944E-2,8.8374995E-2,1.7306891E-1,5.5602826E-2,1.5649794E-1,3.687046E-2,-4.1716476E-3,1.1266686E-1,3.8685407E-2,-3.0232493E-2,-3.7119698E-2,-2.864091E-2,-1.9924646E-2,-2.1186637E-2,-3.596808E-2,-1.3053653E-2,-2.3583991E-2,3.427563E-2,-5.184095E-4,-2.9049236E-2,-1.913292E-2,-4.6001937E-2,-3.2079693E-2,1.4522873E-1,6.3963614E-2,3.3060323E-2,6.557564E-3,8.647001E-2,1.3530225E-1,3.8884796E-2,1.0514118E-1,-2.8751867E-3,-1.7450957E-2,-4.2682517E-2,2.7368484E-2,-2.9628946E-2,-2.0994896E-2,-9.55561E-3,-2.4681136E-2,1.0875278E-1,4.2932343E-2,2.8001118E-2,9.374173E-2,1.0288328E-2,-2.0553123E-2,7.5886235E-2,1.6098958E-2],"categories":[],"categories_nodes":[],"categories_segments":[],"categories_sizes":[],"default_left":[0,0,0,0,0,0,0,0,0,0,0,0,0,0,0,0,0,0,0,0,0,0,0,0,0,0,0,0,0,0,0,0,0,0,0,0,0,0,0,0,0,0,0,0,0,0,0,0,0,0,0,0,0,0,0,0,0,0,0,0,0,0,0,0,0,0,0,0,0,0,0,0,0,0,0,0,0,0,0,0,0,0,0,0,0,0,0,0,0,0,0,0,0,0,0,0,0,0,0,0,0,0,0,0,0,0,0,0,0,0,0],"id":15,"left_children":[1,3,5,7,9,11,13,15,17,19,21,23,-1,25,27,29,31,33,35,37,39,41,43,45,47,49,51,53,55,57,59,61,63,65,67,69,71,-1,73,75,77,79,81,83,85,87,89,91,93,95,97,99,101,103,105,107,109,-1,-1,-1,-1,-1,-1,-1,-1,-1,-1,-1,-1,-1,-1,-1,-1,-1,-1,-1,-1,-1,-1,-1,-1,-1,-1,-1,-1,-1,-1,-1,-1,-1,-1,-1,-1,-1,-1,-1,-1,-1,-1,-1,-1,-1,-1,-1,-1,-1,-1,-1,-1,-1,-1],"loss_changes":[6.184328E1,5.307395E1,8.263626E1,9.879026E1,1.5004799E1,4.012522E1,7.090157E1,4.018502E1,6.7600655E1,4.2451477E-1,1.2783688E1,4.1612076E1,0E0,1.7817368E1,7.004756E1,1.0725611E2,2.3034344E1,3.3337479E0,2.8975868E1,6.481171E-2,5.398636E-1,1.0290922E1,1.1217155E0,4.3055397E1,4.9899673E0,1.7269232E1,3.8838692E0,7.0536118E0,4.2994667E1,3.575548E1,2.4603752E1,5.107605E0,1.8057653E1,3.673172E-1,6.7578583E0,2.0549168E1,1.85905E1,0E0,4.2154312E-2,1.4880133E-1,1.5932083E-1,1.3626518E0,5.9643383E0,8.2546616E-1,1.5791702E-1,1.4512619E1,7.94081E0,3.8810806E0,6.3985653E0,3.612968E0,8.936437E0,7.069893E-1,3.4271574E0,7.0529175E0,8.340626E0,5.034203E1,4.41399E1,0E0,0E0,0E0,0E0,0E0,0E0,0E0,0E0,0E0,0E0,0E0,0E0,0E0,0E0,0E0,0E0,0E0,0E0,0E0,0E0,0E0,0E0,0E0,0E0,0E0,0E0,0E0,0E0,0E0,0E0,0E0,0E0,0E0,0E0,0E0,0E0,0E0,0E0,0E0,0E0,0E0,0E0,0E0,0E0,0E0,0E0,0E0,0E0,0E0,0E0,0E0,0E0,0E0,0E0],"parents":[2147483647,0,0,1,1,2,2,3,3,4,4,5,5,6,6,7,7,8,8,9,9,10,10,11,11,13,13,14,14,15,15,16,16,17,17,18,18,19,19,20,20,21,21,22,22,23,23,24,24,25,25,26,26,27,27,28,28,29,29,30,30,31,31,32,32,33,33,34,34,35,35,36,36,38,38,39,39,40,40,41,41,42,42,43,43,44,44,45,45,46,46,47,47,48,48,49,49,50,50,51,51,52,52,53,53,54,54,55,55,56,56],"right_children":[2,4,6,8,10,12,14,16,18,20,22,24,-1,26,28,30,32,34,36,38,40,42,44,46,48,50,52,54,56,58,60,62,64,66,68,70,72,-1,74,76,78,80,82,84,86,88,90,92,94,96,98,100,102,104,106,108,110,-1,-1,-1,-1,-1,-1,-1,-1,-1,-1,-1,-1,-1,-1,-1,-1,-1,-1,-1,-1,-1,-1,-1,-1,-1,-1,-1,-1,-1,-1,-1,-1,-1,-1,-1,-1,-1,-1,-1,-1,-1,-1,-1,-1,-1,-1,-1,-1,-1,-1,-1,-1,-1,-1],"split_conditions":[8.532E3,3.172E3,1.2481E4,1.682E3,2.675E3,5.7193E4,5.4551E4,5.64E2,8.96E2,1.682E3,9.3E3,2.145E4,-2.6698394E-2,2.9737E4,3.3926E4,6.1E2,7.06E2,6.6E2,3.19E3,1.6E1,6.4227075E5,5.1E3,1.6021E4,4.963E3,9.869E3,2.746E4,2.8301E4,2.6118E4,5.85616E5,1.44E2,3.91E2,9.36E2,1.236E3,9.181E2,2.744E3,1.757E3,1.757E3,-4.184606E-2,1.9E1,3.9E1,6E0,6.558E3,4E3,5.2E3,1E0,3.27E3,7.833E3,1.4928E3,3.2E4,1.9E4,5.967E2,3.6E1,7.3286E4,1.4223E3,9.4851E4,2.30489E5,2.97887E5,6.3156127E-3,-2.036849E-2,1.420414E-1,5.3619754E-2,-2.5818242E-2,-4.345136E-2,8.62552E-3,-2.106944E-2,8.8374995E-2,1.7306891E-1,5.5602826E-2,1.5649794E-1,3.687046E-2,-4.1716476E-3,1.1266686E-1,3.8685407E-2,-3.0232493E-2,-3.7119698E-2,-2.864091E-2,-1.9924646E-2,-2.1186637E-2,-3.596808E-2,-1.3053653E-2,-2.3583991E-2,3.427563E-2,-5.184095E-4,-2.9049236E-2,-1.913292E-2,-4.6001937E-2,-3.2079693E-2,1.4522873E-1,6.3963614E-2,3.3060323E-2,6.557564E-3,8.647001E-2,1.3530225E-1,3.8884796E-2,1.0514118E-1,-2.8751867E-3,-1.7450957E-2,-4.2682517E-2,2.7368484E-2,-2.9628946E-2,-2.0994896E-2,-9.55561E-3,-2.4681136E-2,1.0875278E-1,4.2932343E-2,2.8001118E-2,9.374173E-2,1.0288328E-2,-2.0553123E-2,7.5886235E-2,1.6098958E-2],"split_indices":[5,4,4,5,5,5,5,4,4,5,4,5,0,4,4,5,5,4,5,0,7,5,4,4,4,5,5,4,5,4,4,4,4,6,5,4,4,0,0,0,0,4,4,5,2,4,4,9,5,4,6,0,4,6,5,4,4,0,0,0,0,0,0,0,0,0,0,0,0,0,0,0,0,0,0,0,0,0,0,0,0,0,0,0,0,0,0,0,0,0,0,0,0,0,0,0,0,0,0,0,0,0,0,0,0,0,0,0,0,0,0],"split_type":[0,0,0,0,0,0,0,0,0,0,0,0,0,0,0,0,0,0,0,0,0,0,0,0,0,0,0,0,0,0,0,0,0,0,0,0,0,0,0,0,0,0,0,0,0,0,0,0,0,0,0,0,0,0,0,0,0,0,0,0,0,0,0,0,0,0,0,0,0,0,0,0,0,0,0,0,0,0,0,0,0,0,0,0,0,0,0,0,0,0,0,0,0,0,0,0,0,0,0,0,0,0,0,0,0,0,0,0,0,0,0],"sum_hessian":[1.3299E4,6.627E3,6.672E3,4.558E3,2.069E3,8.25E2,5.847E3,3.731E3,8.27E2,5.45E2,1.524E3,7.36E2,8.9E1,2.056E3,3.791E3,2.205E3,1.526E3,5.6E1,7.71E2,2.62E2,2.83E2,9.7E2,5.54E2,5.89E2,1.47E2,9.15E2,1.141E3,1.77E2,3.614E3,2.065E3,1.4E2,6.75E2,8.51E2,2.7E1,2.9E1,5.39E2,2.32E2,7.2E1,1.9E2,1.14E2,1.69E2,5.86E2,3.84E2,3.61E2,1.93E2,1.27E2,4.62E2,8.5E1,6.2E1,6.81E2,2.34E2,5.04E2,6.37E2,9E1,8.7E1,2.359E3,1.255E3,1.206E3,8.59E2,4.9E1,9.1E1,3.67E2,3.08E2,3.41E2,5.1E2,4E0,2.3E1,1.6E1,1.3E1,1.85E2,3.54E2,4.1E1,1.91E2,4.6E1,1.44E2,6.8E1,4.6E1,1.3E1,1.56E2,4.06E2,1.8E2,5.7E1,3.27E2,1.6E2,2.01E2,1.4E1,1.79E2,2.9E1,9.8E1,1.97E2,2.65E2,5E1,3.5E1,3.6E1,2.6E1,3.53E2,3.28E2,1.9E1,2.15E2,3.57E2,1.47E2,3.94E2,2.43E2,6.6E1,2.4E1,5.8E1,2.9E1,1.559E3,8E2,1.38E2,1.117E3],"tree_param":{"num_deleted":"0","num_feature":"10","num_nodes":"111","size_leaf_vector":"1"}},{"base_weights":[8.1132055E-4,-3.0105896E-2,1.2885393E-1,-8.725998E-3,-2.1018203E-1,3.3764163E-1,6.356891E-2,-4.7484253E-2,1.5809385E-1,-2.6257026E-1,-1.6805525E-1,4.3961275E-1,-2.4792895E-1,-8.729682E-2,2.3030673E-1,-1.3605037E-2,-1.8186674E-1,6.3342255E-1,6.37428E-2,-2.2289488E-1,-3.4750608E-1,-2.0098561E-1,-9.2501596E-2,2.8479266E-1,7.0015556E-1,-2.3882745E-2,-3.8845498E-2,4.605037E-2,-2.424543E-1,6.194192E-1,1.5886712E-1,-4.5545314E-2,3.711831E-1,-2.534027E-1,-1.3103934E-1,1.0649711E0,5.339589E-1,-4.2103413E-2,2.9759488E-1,-2.6131645E-1,-1.0506815E-1,-2.5241742E-1,-3.828269E-1,-2.228036E-1,-1.4545935E-1,7.558787E-1,-1.0527576E-1,6.413006E-1,7.899998E-2,9.6436244E-1,5.269899E-1,-8.283921E-2,2.6333013E-1,-3.3221012E-1,-1.5318018E-1,4.2939508E-1,9.829482E-1,-4.4677608E-2,3.835867E-1,3.8527767E-5,-1.6148714E-2,1.01628E-1,2.6668781E-2,-3.296296E-2,-2.2113098E-2,-4.4588684E-3,-2.5038261E-2,4.5555823E-2,1.1038357E-1,3.7101816E-2,8.533288E-2,9.916852E-3,-9.7986795E-3,6.597993E-2,1.3718197E-2,-3.361567E-2,-2.4374058E-2,-5.5822977E-3,-2.1845786E-2,-2.036959E-2,-4.074453E-2,-2.0981455E-2,-4.1308116E-2,-2.581629E-2,-2.030125E-2,-1.1247703E-2,-2.2894213E-2,1.51947085E-2,9.81871E-2,4.2952243E-3,-1.5498337E-2,7.937934E-2,4.561544E-2,1.7568605E-2,-3.007841E-3,1.303997E-1,8.282738E-2,3.777213E-2,9.0907015E-2,-1.9020073E-2,-3.0394427E-3,1.01630464E-1,2.2416895E-2,-2.6445955E-2,-4.488802E-2,-1.1578911E-2,-3.235298E-2,1.1255302E-1,3.1787563E-2,-6.307962E-2,1.0650394E-1,1.5468689E-2,-3.8969014E-2,6.2036134E-2,1.2376248E-2],"categories":[],"categories_nodes":[],"categories_segments":[],"categories_sizes":[],"default_left":[0,0,0,0,0,0,0,0,0,0,0,0,0,0,0,0,0,0,0,0,0,0,0,0,0,0,0,0,0,0,0,0,0,0,0,0,0,0,0,0,0,0,0,0,0,0,0,0,0,0,0,0,0,0,0,0,0,0,0,0,0,0,0,0,0,0,0,0,0,0,0,0,0,0,0,0,0,0,0,0,0,0,0,0,0,0,0,0,0,0,0,0,0,0,0,0,0,0,0,0,0,0,0,0,0,0,0,0,0,0,0,0,0,0,0],"id":16,"left_children":[1,3,5,7,9,11,13,15,17,19,21,23,25,27,29,31,33,35,37,39,41,43,45,47,49,-1,-1,51,53,55,57,59,61,63,65,67,69,71,73,75,77,79,81,83,85,87,89,91,93,95,97,99,101,103,105,107,109,111,113,-1,-1,-1,-1,-1,-1,-1,-1,-1,-1,-1,-1,-1,-1,-1,-1,-1,-1,-1,-1,-1,-1,-1,-1,-1,-1,-1,-1,-1,-1,-1,-1,-1,-1,-1,-1,-1,-1,-1,-1,-1,-1,-1,-1,-1,-1,-1,-1,-1,-1,-1,-1,-1,-1,-1,-1],"loss_changes":[5.2654873E1,4.124716E1,3.524118E1,6.193547E1,2.4651794E0,3.689115E1,4.962581E1,3.538623E1,8.095468E1,1.624321E0,1.5563164E0,2.0977669E1,2.489376E-2,2.1445814E1,2.5948364E1,7.6327E1,5.657116E0,1.2265442E1,3.7339085E1,1.5434437E0,4.3738556E-1,5.0063896E-1,2.1820211E0,2.4233719E1,8.413345E0,0E0,0E0,1.5648659E1,3.7872753E0,9.594421E0,3.6289345E1,3.0535194E1,3.1815933E1,1.5236359E0,9.449804E0,7.997894E-1,1.24328E1,8.212366E0,2.7217548E1,2.6138115E-1,4.736039E-1,2.6445198E-1,5.10046E-1,1.6732693E-1,3.239379E-1,2.6025915E-1,1.4213245E0,3.0541573E0,2.230566E0,2.4326859E0,6.500538E0,1.9705424E0,5.905547E0,1.7625523E0,1.5039711E0,7.1725845E0,7.1630554E0,2.8742893E1,2.3116184E1,0E0,0E0,0E0,0E0,0E0,0E0,0E0,0E0,0E0,0E0,0E0,0E0,0E0,0E0,0E0,0E0,0E0,0E0,0E0,0E0,0E0,0E0,0E0,0E0,0E0,0E0,0E0,0E0,0E0,0E0,0E0,0E0,0E0,0E0,0E0,0E0,0E0,0E0,0E0,0E0,0E0,0E0,0E0,0E0,0E0,0E0,0E0,0E0,0E0,0E0,0E0,0E0,0E0,0E0,0E0,0E0],"parents":[2147483647,0,0,1,1,2,2,3,3,4,4,5,5,6,6,7,7,8,8,9,9,10,10,11,11,12,12,13,13,14,14,15,15,16,16,17,17,18,18,19,19,20,20,21,21,22,22,23,23,24,24,27,27,28,28,29,29,30,30,31,31,32,32,33,33,34,34,35,35,36,36,37,37,38,38,39,39,40,40,41,41,42,42,43,43,44,44,